svm_type c_svc
kernel_type linear
nr_class 9
total_sv 21855
rho 11.2488 9.39409 11.0719 3.12842 4.95263 6.92914 6.79262 1.92077 4.87926 7.01969 4.83905 0.795875 2.45442 8.23922 1.79145 -3.83787 1.23041 0.542007 0.126177 -3.29019 1.31777 6.90117 1.2778 2.54217 2.61926 2.22097 -3.47277 -2.03691 -5.36312 -0.442737 0.743159 -0.811328 3.15483 -1.70028 1.4863 2.07161
label 3 1 0 2 6 5 8 7 4
nr_sv 405 4449 1494 5204 2608 933 1095 2495 3172
SV
1 1 1 0 0.2318643748185682 0 1 0 1:-0.90700263 2:-1.2914438 3:-1.1205292 4:-1.7847733 
1 1 1 0 0 0 0.632082401571883 0 1:-1.0420163 2:-1.3359534 3:-1.2290602 4:-1.8591049 
1 1 1 0 0 0.2849898585931188 1 0 1:-1.003441 2:-1.2914438 3:-1.3104585 4:-1.7661905 
1 0 1 0 0 0 0 0 1:-0.94557798 2:-1.2914438 3:-1.2019274 4:-1.8962706 
1 0 1 0 0 0 1 0 1:-1.003441 2:-1.3582082 3:-1.2561929 4:-1.8591049 
1 1 1 0 0 0 1 0 1:-0.84913963 2:-1.1801701 3:-1.1205292 4:-1.7476077 
1 1 1 0 0 0 1 0 1:-1.003441 2:-1.4027177 3:-1.2019274 4:-1.8591049 
1 1 1 0 0 0 1 0 1:-0.98415327 2:-1.3359534 3:-1.1205292 4:-1.8591049 
1 0 1 0 0 0 1 0 1:-0.96486562 2:-1.3359534 3:-1.2561929 4:-1.8591049 
1 1 1 0 1 0 1 0 1:-1.003441 2:-1.4027177 3:-1.1747947 4:-1.8219391 
1 1 1 0 1 0 1 0 1:-0.92629027 2:-1.3359534 3:-1.1205292 4:-1.7847733 
1 1 1 0 0 0 1 0 1:-1.003441 2:-1.3359534 3:-1.1476619 4:-1.8219391 
1 0 1 0 0 0 1 0 1:-0.94557798 2:-1.3582082 3:-1.1747947 4:-1.8962706 
1 1 1 0 1 1 1 0 1:-0.86842728 2:-1.2024249 3:-1.1747947 4:-1.7290248 
1 0 1 0 0 0 1 0 1:-0.94557798 2:-1.3136986 3:-1.1747947 4:-1.8591049 
1 0 1 0 0 0 1 0 1:-1.003441 2:-1.3804629 3:-1.2561929 4:-1.8405221 
0 0 0 0 0 1 0 0 1:-0.28979725 2:0.1106062 3:-0.90346694 4:-1.8591049 
0 0 0 0 0 1 0 0 1:-0.23193423 2:0.15511572 3:-0.87633419 4:-1.8405221 
0 0 0 0 0 1 0 0 1:-0.2512219 2:0.19962525 3:-0.79493588 4:-1.8591049 
0 0 0 0 0 1 0 0 1:-0.32837257 2:0.066096671 3:-1.0119981 4:-1.8776878 
0 0 0 0 0 1 0 0 1:-0.1933589 2:0.17737049 3:-0.82206863 4:-1.8405221 
0 0 0 0 0 1 0 0 1:-0.2512219 2:0.19962525 3:-0.90346694 4:-1.8776878 
0 0 0 0 0 1 0 0 1:-0.1933589 2:0.22188002 3:-0.84920138 4:-1.8591049 
0 0 0 0 0 1 0 0 1:-0.27050957 2:0.17737049 3:-0.90346694 4:-1.8591049 
0 0 0 0 0 0.324289962230234 0 0 1:-0.30908492 2:0.066096671 3:-0.98486525 4:-1.8776878 
1 0 1 0 1 0 1 0 1:-1.7170846 2:-2.2929082 3:-2.2329729 4:-1.9706022 
0 0 0.1534233426539902 0 1 1 0 0 1:-1.7363724 2:-2.1593797 3:-2.5314333 4:-1.8591049 
0 0 0 0 0 0 1 0 1:-1.7170846 2:-2.515456 3:-2.3143711 4:-2.2679281 
1 0 1 0 1 0 1 0 1:-1.8906738 2:-2.404182 3:-2.2601056 4:-2.0635164 
0 0 0 0 0 1 0 0 1:-1.6977971 2:-2.2038891 3:-2.7756281 4:-1.9520192 
0 0 1 0 1 1 1 0 1:-1.6592216 2:-2.2038891 3:-2.5856988 4:-1.8776878 
1 0 1 0 0 0 1 0 1:-1.8520983 2:-2.404182 3:-2.0159106 4:-2.2307622 
0 0 1 1 1 1 0 0 1:-1.6399341 2:-2.1148701 3:-2.7213626 4:-1.7476077 
1 1 1 1 1 1 1 1 1:-1.6399341 2:-2.0035963 3:-2.1244416 4:-1.6732762 
1 0 1 0 0 0 1 0 1:-1.7942353 2:-2.2929082 3:-2.2329729 4:-2.0449336 
1 0 1 0 0 0 1 0 1:-1.8713861 2:-2.404182 3:-2.3415039 4:-2.0635164 
1 0 1 0 0.006305344974222415 0 1 0 1:-1.7749476 2:-2.404182 3:-2.0701761 4:-2.1006823 
1 0 1 0 0 0 1 0 1:-1.7942353 2:-2.4486916 3:-2.2058401 4:-2.1192651 
0 0 1 0.6981072162722284 1 1 1 0 1:-1.5820711 2:-2.0926154 3:-2.5314333 4:-1.7661905 
1 1 1 1 1 1 1 0.8588181840586661 1:-1.6977971 2:-2.1148701 3:-2.4500349 4:-1.7290248 
1 0 1 0 0 0 1 0 1:-1.6592216 2:-2.4709463 3:-2.1244416 4:-2.1378479 
1 1 1 0 1 1 1 0 1:-1.6977971 2:-2.1593797 3:-2.2058401 4:-1.8033563 
1 1 1 1 1 1 1 1 1:-1.466345 2:-1.847813 3:-2.1787071 4:-1.6361104 
1 0 1 0 0 0 1 0 1:-1.7363724 2:-2.3151629 3:-2.2872384 4:-2.0449336 
0 0 0 0 0 1 0 0 1:-1.6785094 2:-2.0481057 3:-2.4771676 4:-1.9148535 
1 0.1089568402879566 1 0 1 1 1 0 1:-1.6785094 2:-2.1371248 3:-2.2601056 4:-1.8776878 
0 0 0 0 0 0 1 0 1:-1.6206464 2:-2.2038891 3:-2.2058401 4:-2.0820994 
0 0 1 0 1 1 1 0 1:-1.5820711 2:-2.1371248 3:-2.3686366 4:-1.8776878 
1 0 1 0 0 0 0 0 1:-0.96486562 2:-1.3582082 3:-1.1747947 4:-1.989185 
0 0 1 0 0 0 1 0 1:-0.90700263 2:-1.4472272 3:-1.3375913 4:-1.989185 
1 0 1 0 0 0 1 0 1:-0.92629027 2:-1.3804629 3:-1.0933963 4:-1.9706022 
1 0 1 0 0 0 1 0 1:-0.88771498 2:-1.3136986 3:-1.1205292 4:-1.9706022 
1 0 1 0 0 0 1 0 1:-0.96486562 2:-1.4027177 3:-1.2290602 4:-1.989185 
1 0 1 0 0 0 1 0 1:-0.98415327 2:-1.4472272 3:-1.2561929 4:-1.989185 
0 0 1 0 0 0 0 0 1:-0.84913963 2:-1.2246796 3:-1.2561929 4:-1.8591049 
0 0 1 0 0 0 0 0 1:-0.94557798 2:-1.3136986 3:-1.2290602 4:-1.9334364 
1 0 1 0 0 0 1 0 1:-1.0227287 2:-1.4694819 3:-1.2833258 4:-2.0077679 
1 0 0 0 0 0 0 0 1:-0.96486562 2:-1.3359534 3:-1.1476619 4:-1.989185 
0 0 0 0 0 0 1 0 1:-0.96486562 2:-1.4249724 3:-1.2561929 4:-2.0077679 
1 0 1 0 0 0 0 0 1:-1.061304 2:-1.4694819 3:-1.3104585 4:-1.989185 
0 0 0 0 0 0 1 0 1:-0.75270128 2:-1.2024249 3:-1.0662636 4:-1.9706022 
1 0 1 0 0 0 1 0 1:-0.82985193 2:-1.2914438 3:-1.0933963 4:-1.9706022 
1 0 1 0 0 0 1 0 1:-0.90700263 2:-1.3359534 3:-1.1205292 4:-1.989185 
0 0 0 0 0 0 1 0 1:-0.90700263 2:-1.3804629 3:-1.2290602 4:-2.0077679 
1 0 1 0 0 0 1 0 1:-0.98415327 2:-1.4027177 3:-1.2019274 4:-1.8591049 
1 1 1 0 1 0 1 0 1:-0.98415327 2:-1.3359534 3:-0.9577325 4:-1.8219391 
0 0 0 0 0 0 1 0 1:-0.98415327 2:-1.4917368 3:-1.3375913 4:-2.0449336 
0 0 0 0 0 0 1 0 1:-0.59839994 2:-1.1579154 3:-1.1205292 4:-1.9520192 
1 0 1 0 0 0 1 0 1:-0.96486562 2:-1.4249724 3:-1.1747947 4:-2.0263507 
1 0 1 0 0 0 1 0 1:-0.96486562 2:-1.4694819 3:-1.2019274 4:-2.0263507 
1 0 1 0 0 0 1 0 1:-0.73341364 2:-1.2691891 3:-0.93059969 4:-1.989185 
0 0 1 0 0 0 1 0 1:-0.96486562 2:-1.4917368 3:-1.3104585 4:-2.0263507 
0 0 1 0 0 0 1 0 1:-0.57911229 2:-1.1801701 3:-0.98486525 4:-1.989185 
1 0 1 0 0 0 1 0 1:-0.75270128 2:-1.3582082 3:-1.1205292 4:-1.9520192 
0 0 1 0 0 0 1 0 1:-0.59839994 2:-1.091151 3:-0.90346694 4:-1.9706022 
1 0 1 0 0 0 1 0 1:-0.59839994 2:-1.3359534 3:-0.93059969 4:-1.9706022 
1 0 1 0 0 0 1 0 1:-0.63697529 2:-1.0466415 3:-0.82206863 4:-1.9520192 
0.4461035218751597 0 1 0 0 0 1 0 1:-0.63697529 2:-1.0688963 3:-0.84920138 4:-1.9706022 
1 0 1 0 0 0 1 0 1:-0.77198893 2:-1.3359534 3:-0.76780307 4:-1.9706022 
1 0 1 0 0 0 1 0 1:-0.73341364 2:-1.1579154 3:-0.82206863 4:-1.9706022 
1 0 1 0 0 0 1 0 1:-0.71412593 2:-1.2246796 3:-0.93059969 4:-1.9706022 
1 0 1 0 0 0 1 0 1:-0.52124923 2:-1.091151 3:-0.65927202 4:-1.9148535 
1 0 1 0 0 0 1 0 1:-0.65626293 2:-1.1356605 3:-0.87633419 4:-1.9520192 
1 0 1 0 0 0 1 0 1:-0.90700263 2:-1.4249724 3:-1.1205292 4:-2.0077679 
0 0 0 0 0 0 1 0 1:0.38527113 2:-0.57929146 3:-0.035218243 4:-2.1750138 
0 0 0 0 0 0 1 0 1:0.25025746 2:-0.73507482 3:-0.44220981 4:-2.3050938 
1 0 1 0 0 0 1 0 1:1.4075176 2:1.3346182 3:1.5656153 4:-1.3945332 
0 0 0 0 0 0 0.806731377091619 0 1:0.73244917 2:0.39991811 3:0.88729602 4:-1.8962706 
1 0 0 0 0 0 0 0 1:-0.36694792 2:-0.46801764 3:0.37177333 4:-2.1192651 
1 0 0 0 0 0 0 0 1:0.52028483 2:0.66697526 3:1.1586237 4:-1.8033563 
1 1 1 0 0 0 0 0 1:1.0989149 2:1.1343253 3:1.592748 4:-1.5803618 
1 1 0 0 0 0 0 0 1:-0.52124923 2:-0.51252717 3:0.2089767 4:-2.0449336 
0 1 0 0 0 0 0 0 1:-0.40552324 2:-0.067431904 3:0.42603889 4:-2.0449336 
1 0 1 0 0 0 0 0 1:-0.77198893 2:-0.93536764 3:-0.14374933 4:-2.1564307 
1 0 0 0 0 0 0 0 1:-0.27050957 2:-0.22321525 3:0.34464055 4:-2.0077679 
1 0 0 0 0 0 0 0 1:-0.17407124 2:-0.17870572 3:0.39890611 4:-1.989185 
1 0 1 0 0 0 0 0 1:-0.40552324 2:-0.60154623 3:0.23610948 4:-2.0820994 
1 1 0.9697489072948756 0 0 0 0 0 1:-0.40552324 2:-0.40125334 3:0.37177333 4:-2.0449336 
0 1 0 0 0 0 0 0 1:-0.21264657 2:0.28864431 3:0.64310104 4:-1.9334364 
1 1 0 0 0 0 0 0 1:0.13453145 2:0.28864431 3:0.88729602 4:-1.9148535 
0 0.1358757737369509 0 0 0 0 0 0 1:-0.077632897 2:0.13286096 3:0.64310104 4:-1.9706022 
1 0 0 0 0 0 0 0 1:-0.1933589 2:-0.40125334 3:0.2089767 4:-2.0635164 
0 1 0 0 0 0 0 0 1:0.65529847 2:1.0007967 3:1.2400221 4:-1.7104419 
0 1 0 0 0 0 0 0 1:0.63601083 2:0.93403244 3:1.2942876 4:-1.7290248 
0 1 0 0 0 0 0 0 1:-0.28979725 2:0.021587148 3:0.53456998 4:-2.0077679 
1 0 0 0 0 0 0 0 1:-1.1577423 2:-1.3136986 3:-0.63213921 4:-2.2679281 
1 0 0 0 0 0 0 0 1:-0.23193423 2:-0.28997955 3:0.37177333 4:-2.0449336 
0 0 0.6961120803200381 0 0 0 1 0 1:1.677545 2:1.4904015 3:1.7826775 4:-1.5803618 
0 0 0 0 0 0 1 0 1:1.5811065 2:1.3791277 3:1.7012792 4:-1.6175276 
1 0 1 0 0 0 1 0 1:1.677545 2:1.6016754 3:1.8912085 4:-1.5060303 
1 0 1 0 0 0 0 0 1:1.677545 2:1.6906943 3:1.9726069 4:-1.4874475 
1 0 1 0 0 0 0 0 1:1.6582572 2:1.6239301 3:1.8640758 4:-1.4874475 
1 0 1 0 0 0 1 0 1:1.7739832 2:1.7797134 3:1.9997396 4:-1.3759502 
1 0 1 0 0 0 1 0 1:1.7161202 2:1.6239301 3:1.8912085 4:-1.4874475 
1 0 1 0 0 0 0 0 1:1.619682 2:1.6239301 3:1.8912085 4:-1.4688646 
1 0 1 0 0 0 1 0 1:1.8125585 2:1.7574587 3:1.9183413 4:-1.3759502 
1 0 1 0 0 0 1 0 1:1.7354079 2:1.6906943 3:1.9726069 4:-1.4316988 
1 0 1 0 0 0 0 0 1:1.677545 2:1.6684396 3:1.9454741 4:-1.4874475 
1 0 1 0 0 0 1 0 1:1.8318462 2:1.7129492 3:1.8912085 4:-1.3945332 
1 0 1 0 0 0 0 0 1:1.6003942 2:1.6016754 3:1.8912085 4:-1.5246131 
1 0 1 0 0 0 0 0 1:1.677545 2:1.7129492 3:1.9183413 4:-1.413116 
1 0 1 0 0 0 0 0 1:1.6582572 2:1.6906943 3:1.9454741 4:-1.4688646 
1 0 1 0 0 0 0 0 1:1.7161202 2:1.6906943 3:1.9183413 4:-1.4502817 
1 0 1 0 0 0 1 0 1:1.7739832 2:1.7129492 3:2.0540051 4:-1.3945332 
1 0 1 0 0 0 1 0 1:1.6968325 2:1.6906943 3:1.9454741 4:-1.4316988 
1 0 1 0 0 0 0 0 1:1.7354079 2:1.7352039 3:1.9454741 4:-1.4502817 
1 0 1 0 0 0 1 0 1:1.8704216 2:1.7797134 3:2.0540051 4:-1.3759502 
1 0 1 0 0 0 1 0 1:1.7161202 2:1.7129492 3:1.9726069 4:-1.3945332 
1 0 1 0 0 0 1 0 1:1.7546955 2:1.6016754 3:1.8640758 4:-1.5060303 
1 0 1 0 0 0 1 0 1:1.7161202 2:1.7352039 3:2.0540051 4:-1.413116 
1 0 1 0 0 0 0 0 1:1.6389695 2:1.7352039 3:1.9997396 4:-1.413116 
1 0 1 0 0 0 0 0 1:1.7354079 2:1.7129492 3:1.9183413 4:-1.4502817 
1 0 1 0 0 0 1 0 1:1.6968325 2:1.6906943 3:1.9997396 4:-1.3945332 
1 0 1 0 0 0 0 0 1:1.6968325 2:1.6684396 3:1.9183413 4:-1.4688646 
1 0 1 0 0 0 0 0 1:1.6389695 2:1.6461848 3:1.9183413 4:-1.5060303 
1 0 1 0 0 0 0 0 1:1.677545 2:1.7797134 3:1.9183413 4:-1.3573674 
1 0 1 0 0 0 0 0 1:1.5425313 2:1.534911 3:1.8640758 4:-1.5431961 
1 0 1 0 0 0 0 0 1:1.677545 2:1.6906943 3:1.9183413 4:-1.4316988 
1 0 1 0 0 0 1 0 1:1.7739832 2:1.7574587 3:2.0540051 4:-1.3759502 
1 0 1 0 0 0 0 0 1:1.7546955 2:1.8242229 3:1.9454741 4:-1.3202016 
1 0 1 0 0 0 0 0 1:1.6968325 2:1.7574587 3:1.9726069 4:-1.3945332 
1 0 1 0 0 0 0 0 1:1.6582572 2:1.7129492 3:1.836943 4:-1.3759502 
0 0 1 0 0 0 0 0 1:1.6968325 2:1.6016754 3:1.836943 4:-1.5060303 
1 1 1 0 0 0 1 0 1:1.8125585 2:1.8019682 3:2.1082706 4:-1.3202016 
1 0 1 0 0 0 1 0 1:1.7546955 2:1.7129492 3:1.9997396 4:-1.3759502 
1 1 1 1 0 1 1 0 1:1.9861476 2:2.0022612 3:2.4338641 4:-1.0414586 
1 1 1 0 0 0 1 0 1:1.8318462 2:1.8242229 3:2.1354034 4:-1.3016187 
1 1 1 0 0 0 1 0 1:1.8318462 2:1.8464777 3:2.0811379 4:-1.2458701 
0 0 1 0 0 0 0 0 1:1.677545 2:1.6906943 3:1.836943 4:-1.4316988 
1 1 1 0 0 0 1 0 1:1.7932709 2:1.8019682 3:2.1625364 4:-1.3387845 
1 0 1 0 0 0 1 0 1:1.7739832 2:1.7352039 3:1.9726069 4:-1.3573674 
1 1 1 0 0 0 1 0 1:1.7546955 2:1.7797134 3:2.1625364 4:-1.3202016 
1 1 1 0 0 0 0 0 1:0.48170948 2:0.48893717 3:1.1314909 4:-1.7847733 
1 1 1 0 0 0 1 0 1:1.4268053 2:1.534911 3:1.9454741 4:-1.3573674 
1 1 1 0 0 0 0 0 1:0.2309698 2:0.53344673 3:1.3756859 4:-1.7661905 
1 1 1 0 0 0 0 0 1:0.65529847 2:0.66697526 3:1.2671548 4:-1.691859 
1 1 0 0 0 0 0 0 1:0.30812046 2:0.48893717 3:0.96869433 4:-1.8033563 
1 0 1 0 0 0 0 0 1:0.79031217 2:0.68923002 3:1.1314909 4:-1.7104419 
1 1 1 0 0 0 0 0 1:0.79031217 2:0.97854197 3:1.4842169 4:-1.6175276 
1 1 1 0 0 0 0 0 1:0.73244917 2:0.80050385 3:1.3756859 4:-1.6732762 
1 1 1 0 0 0 0 0 1:0.57814783 2:0.77824908 3:1.2942876 4:-1.6732762 
1 1 1 0 0 0 0 0 1:0.36598349 2:0.33315384 3:1.0229598 4:-1.8219391 
1 1 1 0 0 0 0 0 1:0.53957248 2:0.60021096 3:1.3214203 4:-1.7290248 
1 1 1 0 0 0 1 0 1:0.86746287 2:0.73373955 3:1.4842169 4:-1.6175276 
1 1 0 0 0 0 0 0 1:1.0024766 2:1.1343253 3:1.5113498 4:-1.6175276 
1 1 1 0 0 0 1 0 1:1.0024766 2:0.88952291 3:1.5113498 4:-1.5617789 
1 1 1 0 0 0 0.6031700645728273 0 1:0.4624218 2:0.55570143 3:1.4299514 4:-1.7476077 
1 1 1 0 0 0 0 0 1:0.73244917 2:0.97854197 3:1.4842169 4:-1.5989447 
1 1 1 0 0 0 1 0 1:0.86746287 2:0.86726815 3:1.5656153 4:-1.5989447 
1 0 1 0 0 0 0 0 1:0.79031217 2:0.75599432 3:1.2671548 4:-1.7104419 
1 1 1 0 0 0 1 0 1:0.96390116 2:1.0453062 3:1.6741464 4:-1.5431961 
1 0 1 0 0 0 1 0 1:0.44313416 2:0.31089908 3:1.0500926 4:-1.8591049 
1 1 0 0 0 0 0 0 1:0.65529847 2:0.80050385 3:1.2671548 4:-1.7104419 
1 1 1 0 0 0 0 0 1:0.77102453 2:0.95628721 3:1.4842169 4:-1.6175276 
1 0 1 0 0 0 1 0 1:1.0410519 2:0.97854197 3:1.3756859 4:-1.5989447 
1 1 1 0 0 0 0 0 1:0.53957248 2:0.64472049 3:1.2400221 4:-1.7290248 
1 1 1 0 0 0 1 0 1:0.40455881 2:0.37766334 3:1.2671548 4:-1.7847733 
1 0 1 0 0 0 1 0 1:0.82888752 2:0.73373955 3:1.4570842 4:-1.7661905 
1 1 1 0 0 0 0 0 1:0.88675052 2:0.95628721 3:1.4028187 4:-1.6175276 
1 0 1 0 0 0 0 0 1:0.98318887 2:1.0007967 3:1.3756859 4:-1.5989447 
1 1 1 0 0 0 1 0 1:0.94461352 2:0.97854197 3:1.5113498 4:-1.5803618 
1 1 1 0 0 0 1 0 1:0.095956117 2:-0.045177143 3:0.80589771 4:-1.9148535 
1 1 1 0 0 0 0 0 1:0.19239447 2:0.22188002 3:0.80589771 4:-1.8591049 
1 0 1 0 0 0 0 0 1:0.53957248 2:0.51119196 3:1.0500926 4:-1.7847733 
1 1 0 0 0 0 0 0 1:0.26954514 2:0.42217287 3:1.0229598 4:-1.8219391 
1 1 1 0 0 0 1 0 1:0.57814783 2:0.48893717 3:1.0772254 4:-1.7290248 
1 0 0 0 0 0 0 0 1:0.53957248 2:0.64472049 3:1.0772254 4:-1.7661905 
1 1 0 0 0 0 0 0 1:0.48170948 2:0.5779562 3:1.0772254 4:-1.7847733 
1 1 1 0 0 0 0 0 1:0.018805446 2:0.28864431 3:0.91442877 4:-1.7847733 
1 1 1 0 0 0 0 0 1:0.61672318 2:0.66697526 3:1.1857564 4:-1.7104419 
1 1 1 0 0 0 1 0 1:0.4624218 2:0.37766334 3:1.2400221 4:-1.7661905 
1 0 1 0 0 0 0 0 1:0.28883281 2:0.26638955 3:0.96869433 4:-1.8962706 
1 1 1 0 0 0 0 0 1:0.71316153 2:0.77824908 3:1.3485532 4:-1.7104419 
1 1 1 0 0 0 0 0 1:0.61672318 2:0.60021096 3:1.2671548 4:-1.7661905 
1 1 1 0 0 0 0 0 1:0.67458618 2:0.77824908 3:1.2942876 4:-1.7104419 
1 0 1 0 0 0 1 0 1:0.71316153 2:0.60021096 3:1.2400221 4:-1.7290248 
1 1 1 0 0 0 1 0 1:0.94461352 2:0.97854197 3:1.5656153 4:-1.6175276 
1 0 1 0 0 0 1 0 1:0.65529847 2:0.5779562 3:1.1857564 4:-1.7290248 
1 1 1 0 0 0 1 0 1:0.69387382 2:0.71148479 3:1.4842169 4:-1.7290248 
1 1 1 0 0 0 0 0 1:1.0989149 2:1.2233443 3:1.6198808 4:-1.5246131 
1 1 0 0 0 0 0 0 1:0.90603817 2:1.2010896 3:1.5656153 4:-1.5989447 
1 1 1 0 0 0 0 0 1:1.0796272 2:1.4013824 3:1.6741464 4:-1.4874475 
1 1 1 0 0 0 0 0 1:1.0024766 2:1.1788348 3:1.6198808 4:-1.5803618 
1 1 1 0 0 0 0 0 1:0.79031217 2:0.82275862 3:1.3485532 4:-1.6732762 
1 1 1 0 0 0 0 0 1:0.61672318 2:0.71148479 3:1.2671548 4:-1.691859 
1 0 1 0 0 0 0 0 1:0.84817517 2:0.91177768 3:1.3756859 4:-1.6732762 
1 1 1 0 0 0 0 0 1:0.42384648 2:0.42217287 3:1.1314909 4:-1.7847733 
1 0 1 0 0 0 0 0 1:0.4624218 2:0.44442764 3:1.0772254 4:-1.8219391 
1 1 1 0 0 0 0 0 1:0.38527113 2:0.48893717 3:1.2128893 4:-1.7476077 
1 1 1 0 0 0 0 0 1:0.73244917 2:0.84501338 3:1.3214203 4:-1.6732762 
1 1 1 0 0 0 1 0 1:1.0410519 2:1.067561 3:1.5384825 4:-1.5431961 
0 1 0 0 0 0 0 0 1:0.42384648 2:0.68923002 3:1.1043582 4:-1.7476077 
1 1 1 0 0 0 1 0 1:0.61672318 2:0.53344673 3:1.3214203 4:-1.7476077 
0 1 0 0 0 0 0 0 1:0.79031217 2:0.95628721 3:1.2671548 4:-1.6546932 
1 1 0 0 0 0 0 0 1:0.4624218 2:0.66697526 3:1.1314909 4:-1.7661905 
1 0 1 0 0 0 0 0 1:0.98318887 2:1.0453062 3:1.3756859 4:-1.5803618 
1 0 1 0 0 0 0 0 1:1.1567779 2:1.1788348 3:1.5384825 4:-1.5431961 
1 1 1 0 0 0 0 0 1:0.69387382 2:0.71148479 3:1.3214203 4:-1.691859 
1 0 1 0 0 0 1 0 1:0.57814783 2:0.4666824 3:1.2400221 4:-1.8405221 
0 0.6782616991662929 0 0 0 0 0 0 1:0.71316153 2:0.95628721 3:1.2400221 4:-1.691859 
1 1 0 0 0 0 0 0 1:0.61672318 2:0.84501338 3:1.3214203 4:-1.691859 
1 1 1 0 0 0 0 0 1:1.0024766 2:1.1788348 3:1.5656153 4:-1.5617789 
1 1 0 0 0 0 0 0 1:0.84817517 2:1.0007967 3:1.4299514 4:-1.6546932 
1 1 1 0 0 0 0 0 1:0.2309698 2:0.28864431 3:1.0229598 4:-1.8405221 
1 1 1 0 0 0 0 0 1:0.55886018 2:0.66697526 3:1.2671548 4:-1.7290248 
1 0 1 0 0 0 0 0 1:0.61672318 2:0.55570143 3:1.1586237 4:-1.7476077 
1 0 0 0 0 0 0 0 1:0.67458618 2:0.75599432 3:1.2128893 4:-1.7290248 
1 1 1 0 0 0 0 0 1:0.4624218 2:0.4666824 3:1.2671548 4:-1.8219391 
1 1 1 0 0 0 1 0 1:0.55886018 2:0.53344673 3:1.4299514 4:-1.7476077 
1 1 1 0 0 0 0 0 1:0.59743547 2:0.55570143 3:1.1857564 4:-1.7476077 
1 1 1 0 0 0 1 0 1:0.38527113 2:0.31089908 3:0.99582708 4:-1.7847733 
1 1 1 0 0 0 1 0 1:0.94461352 2:0.93403244 3:1.4842169 4:-1.6361104 
1 1 1 0 0 0 0 0 1:0.92532587 2:1.0230515 3:1.5656153 4:-1.5617789 
1 1 1 0 0 0 0 0 1:0.26954514 2:0.24413478 3:0.94156152 4:-1.8405221 
1 1 1 0 0 0 0 0 1:0.73244917 2:0.80050385 3:1.4570842 4:-1.6546932 
1 1 1 0 0 0 1 0 1:0.86746287 2:0.91177768 3:1.5656153 4:-1.6175276 
1 1 1 0 0 0 0 0 1:0.71316153 2:0.77824908 3:1.4028187 4:-1.6732762 
1 1 1 0 0 0 1 0 1:0.82888752 2:0.84501338 3:1.4299514 4:-1.6175276 
1 1 1 0 0 0 1 0 1:0.71316153 2:0.68923002 3:1.4299514 4:-1.7104419 
1 0 0 0 0 0 0 0 1:0.71316153 2:0.82275862 3:1.2400221 4:-1.7104419 
1 1 1 0 0 0 1 0 1:-0.55982459 2:-0.73507482 3:0.26324224 4:-2.0820994 
1 1 1 0 0 0 1 0 1:0.80959982 2:0.75599432 3:1.4570842 4:-1.6546932 
1 1 0 0 0 0 0 0 1:0.36598349 2:0.44442764 3:1.0500926 4:-1.8405221 
1 0 1 0 0 0 1 0 1:-0.28979725 2:-0.53478193 3:0.34464055 4:-2.0635164 
1 1 1 0 0 0 1 0 1:0.84817517 2:0.73373955 3:1.3756859 4:-1.6732762 
1 1 1 0 0 0 0 0 1:0.42384648 2:0.48893717 3:1.1314909 4:-1.8033563 
1 0 1 0 0 0 0 0 1:0.57814783 2:0.39991811 3:0.88729602 4:-1.8219391 
0 1 0 0 0 0 0 0 1:0.65529847 2:0.84501338 3:1.1586237 4:-1.691859 
1 1 1 0 0 0 1 0 1:1.0217642 2:0.95628721 3:1.5384825 4:-1.5617789 
1 1 1 0 0 0 0 0 1:0.40455881 2:0.4666824 3:1.0229598 4:-1.8033563 
1 0 0 0 0 0 0 0 1:0.2309698 2:0.26638955 3:0.7787649 4:-1.8591049 
1 1 1 0 0 0 0 0 1:0.11524379 2:0.066096671 3:0.7787649 4:-1.8962706 
1 1 1 0 0 0 0 0 1:0.13453145 2:0.04384191 3:0.83303046 4:-1.8962706 
1 0 1 0 0 0 0 0 1:0.55886018 2:0.5779562 3:1.0500926 4:-1.7476077 
1 0 1 0 0 0 0 0 1:0.67458618 2:0.64472049 3:1.1857564 4:-1.7290248 
1 0 1 0 0 0 0 0 1:0.32740813 2:0.26638955 3:0.94156152 4:-1.8405221 
1 1 1 0 0 0 0 0 1:0.19239447 2:0.17737049 3:0.96869433 4:-1.8776878 
1 1 0 0 0 0 0 0 1:0.73244917 2:1.0007967 3:1.4299514 4:-1.6732762 
1 1 1 0 0 0 0 0 1:0.86746287 2:0.93403244 3:1.5113498 4:-1.6175276 
1 1 1 0 0 0 1 0 1:1.0024766 2:0.93403244 3:1.7012792 4:-1.5431961 
1 1 1 0 0 0 0 0 1:0.92532587 2:1.2901087 3:1.5656153 4:-1.413116 
1 1 1 0 0 0 1 0 1:0.84817517 2:0.86726815 3:1.4570842 4:-1.5803618 
1 1 1 0 0 0 0 0 1:1.1567779 2:1.3123634 3:1.7555447 4:-1.4502817 
1 0 0 0 0 0 0 0 1:0.63601083 2:0.66697526 3:1.1043582 4:-1.7661905 
1 1 1 0 0 0 0 0 1:-0.28979725 2:-0.42350811 3:0.39890611 4:-2.0077679 
1 1 1 0 0 0 1 0 1:0.92532587 2:0.80050385 3:1.6198808 4:-1.6175276 
1 1 0 0 0 0 0 0 1:0.018805446 2:0.22188002 3:0.7787649 4:-1.9148535 
1 1 1 0 0 0 1 0 1:1.2146409 2:1.2010896 3:1.9454741 4:-1.4502817 
1 0 1 0 0 0 0 0 1:-0.23193423 2:-0.28997955 3:0.39890611 4:-1.989185 
1 1 1 0 0 0.8557174040308234 1 0 1:1.4075176 2:1.534911 3:2.0268724 4:-1.2458701 
1 1 1 0 0 0 1 0 1:1.3496546 2:1.445892 3:1.9726069 4:-1.2830359 
0 0 1 0 0 0.3332300744117407 1 0 1:1.7932709 2:1.3791277 3:1.0229598 4:-1.3202016 
1 0 1 1 0 1 1 0 1:1.9475722 2:1.6461848 3:1.4570842 4:-1.1901215 
0 0 1 0 0 1 1 0 1:1.8511339 2:1.5571659 3:1.2671548 4:-1.2830359 
0 0 1 0 0 1 1 0 1:1.9668599 2:1.7352039 3:1.5656153 4:-1.2458701 
0 0 0 0 0 0 1 0 1:1.9668599 2:1.7129492 3:1.5113498 4:-1.3387845 
1 0 1 0 0 0 1 0 1:0.75173682 2:-0.37899858 3:1.4299514 4:-1.9520192 
0 1 0 0 0 0 0 0 1:0.018805446 2:1.0230515 3:1.1314909 4:-1.7847733 
1 0 0 0 0 0 0 0 1:0.48170948 2:0.37766334 3:0.86016321 4:-1.8405221 
1 0 1 0 0 0 1 0 1:2.0632982 2:0.37766334 3:0.7787649 4:-1.8962706 
1 0 1 0 0 0 1 0 1:1.3689423 2:1.3568729 3:1.7826775 4:-1.5060303 
0 0 0 0 0 1 0 0 1:1.7354079 2:2.1135349 3:1.5113498 4:-1.3573674 
1 0 1 0 0 0 1 0 1:2.0632982 2:1.4013824 3:1.8098103 4:-1.6732762 
1 0 1 0 0 0 0 0 1:0.71316153 2:0.62246573 3:1.3214203 4:-1.8405221 
1 1 0 0 0 0 0 0 1:-0.2512219 2:-0.045177143 3:0.6973666 4:-2.0077679 
0 1 0 0 0 0 0 0 1:-0.01976989 2:0.68923002 3:0.91442877 4:-1.8219391 
0 1 0 0 0 0 0 0 1:1.0024766 2:1.2455992 3:1.4842169 4:-1.5803618 
1 1 1 0 0 0 0 0 1:1.2339286 2:1.3346182 3:1.8098103 4:-1.5617789 
0 1 0 0 0 1 0 0 1:1.561819 2:1.9577515 3:1.8912085 4:-1.2830359 
0 1 0 0 0 0 0 0 1:-0.27050957 2:0.19962525 3:0.3175078 4:-1.8591049 
1 0 0 0 0 0 0 0 1:-0.34766024 2:-0.37899858 3:0.37177333 4:-2.0635164 
1 1 1 0 0 0 0 0 1:1.4846683 2:1.6684396 3:1.7826775 4:-1.3387845 
1 1 1 0 0 0 0 0 1:0.71316153 2:0.82275862 3:1.4570842 4:-1.7476077 
0 1 0 0 0 0 0 0 1:1.3882298 2:1.6684396 3:1.8098103 4:-1.4502817 
1 0 1 0 0 0 1 0 1:1.6968325 2:1.5126563 3:1.8640758 4:-1.4316988 
0 1 0 0 0 0 0 0 1:-0.077632897 2:0.22188002 3:0.75163215 4:-1.9334364 
1 1 0 0 0 0 0 0 1:1.0603396 2:1.2901087 3:1.7012792 4:-1.5989447 
0 1 0 0 0 0 0 0 1:-0.01976989 2:0.19962525 3:0.80589771 4:-1.989185 
0 1 0 0 0 0 0 0 1:0.34669581 2:0.64472049 3:1.1043582 4:-1.8033563 
1 0 1 0 0 0 1 0 1:1.3689423 2:0.80050385 3:1.8098103 4:-1.6361104 
1 0 1 0 0 0 1 0 1:-0.40552324 2:-0.77958435 3:-0.062351014 4:-2.1192651 
0 1 0 0 0 0 0 0 1:0.92532587 2:1.3791277 3:1.3485532 4:-1.5431961 
1 0.8570848416628366 1 0 0 0 0 0 1:1.3496546 2:1.5126563 3:1.7555447 4:-1.4874475 
1 1 1 0 0 0 0 0 1:0.53957248 2:0.73373955 3:1.2942876 4:-1.6732762 
1 1 1 0 0 1 0 0 1:1.3496546 2:1.7352039 3:1.9183413 4:-1.3202016 
1 0 1 0 0 0 1 0 1:0.28883281 2:-0.022922378 3:1.0229598 4:-1.9520192 
1 1 1 0 0 1 1 0 1:1.6389695 2:1.9354968 3:2.1354034 4:-1.1715386 
1 0 1 0 0 0 0 0 1:-0.00048222113 2:-0.045177143 3:0.72449934 4:-1.9706022 
0 1 0 0 0 0 0 0 1:0.96390116 2:1.3568729 3:1.4842169 4:-1.5803618 
1 1 1 0 0 0 0 0 1:1.619682 2:1.7129492 3:2.0268724 4:-1.3945332 
1 0 1 0 0 0 0 0 1:0.88675052 2:0.75599432 3:1.2942876 4:-1.7476077 
1 1 0 0 0 0 0 0 1:0.36598349 2:0.5779562 3:1.2942876 4:-1.8591049 
1 1 1 0 0 0 0 0 1:1.3882298 2:1.6016754 3:1.8912085 4:-1.4316988 
1 1 1 0 0 0 0 0 1:1.2339286 2:1.4236373 3:1.8912085 4:-1.4502817 
1 1 1 0 0 0 1 0 1:1.4268053 2:1.3346182 3:1.8640758 4:-1.4688646 
1 0 1 0 0 0 1 0 1:0.57814783 2:0.13286096 3:0.94156152 4:-1.9706022 
1 1 1 0 0 0 0 0 1:1.4460928 2:1.6016754 3:2.0811379 4:-1.4688646 
1 0 1 0 0 0 1 0 1:1.4846683 2:1.445892 3:1.836943 4:-1.4502817 
1 1 1 0 0 0 0 0 1:1.3882298 2:1.6016754 3:2.0268724 4:-1.3759502 
1 1 1 0 0 0 0 0 1:0.80959982 2:1.067561 3:1.2942876 4:-1.5246131 
1 0 0 0 0 0 0 0 1:1.3110793 2:1.3791277 3:1.6470137 4:-1.5431961 
1 0 1 0 0 0 1 0 1:0.82888752 2:0.66697526 3:1.3214203 4:-1.7847733 
0 1 0 0 0 0 0 0 1:1.2917916 2:1.5794206 3:1.7555447 4:-1.4502817 
1 1 1 0 0 0 0 0 1:1.2532163 2:1.4904015 3:1.8098103 4:-1.4874475 
0 1 0 0 0 0 0 0 1:0.095956117 2:1.0007967 3:0.83303046 4:-1.8776878 
1 0 1 0 0 0 1 0 1:1.3882298 2:1.2455992 3:1.7826775 4:-1.5060303 
1 0 1 0 0 0 0 0 1:1.4460928 2:1.3791277 3:1.7284119 4:-1.5617789 
1 1 0 0 0 0 0 0 1:0.38527113 2:0.60021096 3:1.2671548 4:-1.8405221 
0 0 0 0 0 1 0 0 1:0.26954514 2:1.0453062 3:0.48030442 4:-1.6546932 
1 0 0 0 0 0 0 0 1:0.92532587 2:0.88952291 3:1.4842169 4:-1.7847733 
1 1 1 0 0 0 0 0 1:1.0410519 2:1.1120706 3:1.7555447 4:-1.6361104 
1 0 1 0 0 0 1 0 1:1.7739832 2:1.6684396 3:1.9726069 4:-1.3759502 
1 0 1 0 0 0 1 0 1:1.5232435 2:1.2233443 3:1.5113498 4:-1.5246131 
1 0 1 0 0 0 1 0 1:1.561819 2:1.6016754 3:1.836943 4:-1.3945332 
0 1 0 0 0 1 0 0 1:1.1953532 2:1.7129492 3:1.4570842 4:-1.413116 
1 0 0 0 0 0 0 0 1:-0.30908492 2:-0.75732958 3:-0.08948379 4:-2.1750138 
1 1 1 0 0 0 0 0 1:0.75173682 2:0.91177768 3:1.6470137 4:-1.7104419 
0 1 0 0 0 0 0 0 1:-0.55982459 2:-0.022922378 3:0.12757839 4:-2.0449336 
1 0 1 0 0 0 1 0 1:0.65529847 2:0.39991811 3:0.96869433 4:-1.7476077 
1 1 0 0 0 0 0 0 1:1.1760656 2:1.445892 3:1.7555447 4:-1.5431961 
1 0 1 0 0 0 1 0 1:0.94461352 2:0.55570143 3:1.4299514 4:-1.7104419 
1 0 0 0 0 0 0 0 1:0.86746287 2:0.97854197 3:1.3756859 4:-1.691859 
1 0 1 0 0 0 1 0 1:0.61672318 2:0.26638955 3:1.2400221 4:-1.8776878 
1 0 0 0 0 0 0 0 1:-0.44409859 2:-0.46801764 3:0.2089767 4:-2.0820994 
0 0 0 0 0 1 0 0 1:0.98318887 2:1.445892 3:0.72449934 4:-1.5431961 
0 1 0 0 0 0 0 0 1:1.2725039 2:1.7129492 3:1.836943 4:-1.4316988 
1 1 1 0 0 0 1 0 1:1.5232435 2:1.5126563 3:1.9183413 4:-1.4316988 
1 0 0 0 0 0 0 0 1:-0.039057557 2:-0.15645096 3:0.45317164 4:-1.989185 
1 1 1 0 0 0 0 0 1:0.80959982 2:0.93403244 3:1.6470137 4:-1.7661905 
0 1 0 0 0 0 0 0 1:0.40455881 2:0.68923002 3:1.0772254 4:-1.8219391 
1 0 0 0 0 0 0 0 1:0.69387382 2:0.62246573 3:1.3214203 4:-1.8962706 
0.7037387514352861 1 0 0 0 0 0 0 1:0.11524379 2:0.31089908 3:0.94156152 4:-1.9520192 
1 1 1 0 0 0 1 0 1:1.2917916 2:1.2455992 3:1.6741464 4:-1.4874475 
1 1 0 0 0 0 0 0 1:0.84817517 2:1.2233443 3:1.7284119 4:-1.6361104 
1 1 1 0.616276863393724 0 1 1 0 1:1.9861476 2:2.0467706 3:2.2439346 4:-1.0414586 
1 0 1 0 0 0 0 0 1:-0.1354959 2:-0.28997955 3:0.64310104 4:-2.0449336 
1 1 1 0 0 0 1 0 1:0.095956117 2:0.066096671 3:1.1586237 4:-1.9520192 
1 1 0 0 0 0 0 0 1:0.076668449 2:0.4666824 3:1.1857564 4:-1.8776878 
1 0 1 0 0 0 1 0 1:1.2146409 2:0.93403244 3:1.4570842 4:-1.7104419 
0 0 0 0 0 0 1 0 1:0.73244917 2:0.1106062 3:0.48030442 4:-1.989185 
1 1 1 0 0 0 1 0 1:1.561819 2:1.6684396 3:2.1625364 4:-1.2458701 
1 0 0 0 0 0 0 0 1:0.17310679 2:0.021587148 3:0.67023385 4:-1.989185 
0 1 0 0 0 0 0 0 1:0.79031217 2:1.067561 3:1.3485532 4:-1.6175276 
1 1 1 0 0 0 0 0 1:1.1182026 2:1.3346182 3:1.836943 4:-1.5803618 
1 1 1 0 0 0 1 0 1:1.6003942 2:1.7129492 3:2.1354034 4:-1.2272873 
1 0 0 0 0 0 0 0 1:0.61672318 2:0.71148479 3:1.1314909 4:-1.7476077 
1 0 0 0 0 0 0 0 1:-0.21264657 2:-0.22321525 3:0.56170273 4:-2.1006823 
1 1 0.3484954192818786 0 0 1 0 0 1:1.4460928 2:1.9577515 3:2.0811379 4:-1.3016187 
1 1 1 1 1 1 1 0.8569996685776319 1:2.0440106 2:2.2248087 3:2.4609969 4:-0.8184641 
1 1 1 0 0 0 1 0 1:1.6389695 2:1.7797134 3:2.0811379 4:-1.2644531 
1 1 1 0 0 0 1 0 1:1.0989149 2:1.1343253 3:1.7284119 4:-1.5989447 
1 1 1 0 0 1 0 0 1:1.4268053 2:1.6684396 3:1.8640758 4:-1.3016187 
1 0 0 0 0 0 0 0 1:0.44313416 2:0.44442764 3:1.0772254 4:-1.8591049 
1 1 1 0 0 0 0 0 1:0.80959982 2:0.91177768 3:1.4570842 4:-1.7104419 
1 0 1 0 0 0 0 0 1:1.0603396 2:1.0007967 3:1.6470137 4:-1.7661905 
1 0 0 0 0 0 0 0 1:0.057380784 2:0.1106062 3:0.64310104 4:-1.9334364 
1 1 1 0 0 0 0 0 1:0.98318887 2:1.0898157 3:1.592748 4:-1.6361104 
0 1 0 0 0 0 0 0 1:0.4624218 2:1.0898157 3:1.1043582 4:-1.7290248 
0 0 0 0 0 0 1 0 1:0.13453145 2:-0.33448908 3:0.23610948 4:-2.0820994 
0 1 0 0 0 0 0 0 1:0.63601083 2:0.95628721 3:1.4842169 4:-1.8033563 
1 1 0 0 0 0 0 0 1:1.2725039 2:1.534911 3:1.7555447 4:-1.4688646 
1 1 1 0 0 0 1 0 1:1.5425313 2:1.6016754 3:1.7284119 4:-1.3202016 
1 0 1 0 0 0 0 0 1:1.3303668 2:1.2678539 3:1.6470137 4:-1.5803618 
0 1 0 0 0 0 0 0 1:0.88675052 2:1.2010896 3:1.5113498 4:-1.6546932 
1 0 0 0 0 0 0 0 1:0.84817517 2:0.93403244 3:1.3485532 4:-1.6732762 
1 0 1 0 0 0 0 0 1:1.4460928 2:1.4236373 3:1.7555447 4:-1.5617789 
1 0 1 0 0 0 1 0 1:1.1567779 2:0.77824908 3:1.1586237 4:-1.7104419 
1 1 1 0 0 0 0 0 1:1.0410519 2:1.2233443 3:1.836943 4:-1.5803618 
1 1 1 0 0 0 1 0 1:1.3303668 2:1.2901087 3:1.9183413 4:-1.4874475 
1 1 1 0 0 0 1 0 1:1.2532163 2:1.3568729 3:1.8640758 4:-1.4316988 
1 1 1 0 0 0 0 0 1:1.0989149 2:1.3123634 3:1.6198808 4:-1.5246131 
1 1 1 0 0 0 1 0 1:1.8125585 2:1.6906943 3:2.0540051 4:-1.2830359 
0 0 0 0 0 0 1 0 1:1.1953532 2:0.73373955 3:1.0229598 4:-1.8219391 
1 0 0 0 0 0 0 0 1:0.48170948 2:0.5779562 3:1.1857564 4:-1.8405221 
1 1 0 0 0 0 0 0 1:0.11524379 2:0.28864431 3:1.0229598 4:-1.9334364 
1 0 1 0 0 0 1 0 1:1.3303668 2:1.2455992 3:1.6470137 4:-1.5617789 
1 1 1 1 1 1 1 1 1:2.2754626 2:2.3805921 3:3.0036521 4:-0.056566376 
1 0 0 0 0 0 0 0 1:-1.0420163 2:-1.3582082 3:-0.82206863 4:-2.1935966 
1 1 1 0 1 0 1 0 1:-0.57911229 2:-1.0466415 3:0.53456998 4:-1.989185 
1 0 1 0 0 0 1 0 1:-1.0420163 2:-1.4694819 3:-0.84920138 4:-2.1935966 
1 0 1 0 0 0 0 0 1:-0.79127663 2:-1.0466415 3:-0.38794428 4:-2.1006823 
1 0 1 0 0 0 1 0 1:0.71316153 2:0.53344673 3:1.0229598 4:-1.7104419 
1 1 1 0 0 1 1 0 1:1.6389695 2:1.8019682 3:2.2168019 4:-1.1343729 
1 0 1 0 0 0 1 0 1:1.1760656 2:1.1565801 3:1.4842169 4:-1.5060303 
1 1 1 0 0 1 1 0 1:1.8704216 2:2.0245159 3:2.2168019 4:-1.0228757 
-0 1 1 1 0 1 1 0 1:1.0796272 2:0.82275862 3:0.88729602 4:-0.55830389 
-0 1 1 0 0 0 1 0 1:1.2339286 2:1.0007967 3:1.1043582 4:-0.76271546 
-0 1 1 0 0 0 1 0 1:1.3110793 2:1.067561 3:1.1043582 4:-0.70696688 
-0 0 1 0 0 0 1 0 1:1.6968325 2:1.5126563 3:1.592748 4:-0.33530945 
-0 1 1 0 0 1 1 0 1:1.5232435 2:1.445892 3:1.2128893 4:-0.55830389 
-0 1 1 0 0 0 1 0 1:1.6003942 2:1.4236373 3:1.5384825 4:-0.46538955 
-0 0 1 0 0 0 1 0 1:1.7739832 2:1.5571659 3:1.7012792 4:-0.42822379 
-0 1 1 0 0 0 1 0 1:1.0024766 2:1.0007967 3:1.2128893 4:-0.72554976 
-0 1 1 0 0 0 1 0 1:1.1953532 2:1.0453062 3:1.1857564 4:-0.72554976 
-0 1 1 0 0 0 1 0 1:1.2532163 2:1.2455992 3:1.2400221 4:-0.59546965 
-0 1 1 0 0 0 1 0 1:1.6003942 2:1.5794206 3:1.6198808 4:-0.50255531 
-0 1 1 1 1 1 1 0.8249824075441419 1:-0.36694792 2:-0.57929146 3:-0.19801487 4:-1.5246131 
-0 1 1 0 0 1 1 0 1:0.25025746 2:-0.022922378 3:0.15471116 4:-1.2830359 
-0 1 1 1 0 1 1 0 1:1.4846683 2:1.3568729 3:1.1857564 4:-0.50255531 
-0 1 1 0 0 0 1 0 1:1.2339286 2:1.2010896 3:1.2400221 4:-0.66980112 
-0 1 1 0 0 0 1 0 1:1.3303668 2:1.2010896 3:1.2671548 4:-0.65121824 
-0 0 1 1 0 1 1 0 1:1.8318462 2:1.5571659 3:1.1314909 4:-0.40964094 
-1 0 1 1 0 1 1 0 1:1.0217642 2:0.53344673 3:0.23610948 4:-1.1529558 
-0 1 1 0 0 0 1 0 1:1.1567779 2:0.93403244 3:0.96869433 4:-0.72554976 
-0 1 1 1 0 1 1 0 1:1.6968325 2:1.5126563 3:1.0772254 4:-0.40964094 
-0 1 1 0 0 0 1 0 1:1.5232435 2:1.3123634 3:1.3485532 4:-0.53972101 
-0 0 1 0 0 0 1 0 1:1.561819 2:1.3568729 3:1.4570842 4:-0.53972101 
-0 0 1 0 0 0 1 0 1:1.6003942 2:1.3791277 3:1.4028187 4:-0.46538955 
-0 0 1 0 0 0 1 0 1:1.5039558 2:1.2678539 3:1.4028187 4:-0.63263535 
-0 1 1 0 0 0 1 0 1:1.1374902 2:0.93403244 3:1.0229598 4:-0.83704698 
-0 1 1 0 0 0 1 0 1:1.2917916 2:1.1120706 3:1.2400221 4:-0.66980112 
-0 0 1 0 0 0 1 0 1:1.6389695 2:1.4013824 3:1.4299514 4:-0.37247518 
-0 1 1 0 0 0 1 0 1:1.2725039 2:1.0453062 3:1.1857564 4:-0.8184641 
-0 1 1 1 0 1 1 0 1:1.0989149 2:1.067561 3:1.0229598 4:-0.57688677 
-0 1 1 0 0 0 1 0 1:1.5039558 2:1.2901087 3:1.2942876 4:-0.46538955 
-0 0 1 1 0 0 1 0 1:1.2339286 2:0.22188002 3:0.39890611 4:-0.79988122 
-0 1 1 0 0 0 1 0 1:1.3882298 2:1.1788348 3:1.1857564 4:-0.66980112 
-0 1 1 0 0 0 1 0 1:0.96390116 2:0.73373955 3:0.91442877 4:-0.96712708 
-0 1 1 0 0 0 1 0 1:1.1567779 2:0.88952291 3:0.96869433 4:-0.85562986 
-0 1 1 0 0 0 1 0 1:1.677545 2:1.8464777 3:2.2982001 4:-0.31672657 
-0 1 1 0 0 0 1 0 1:1.0989149 2:0.82275862 3:0.86016321 4:-0.91137844 
-0 1 1 0 0 0 1 0 1:1.2532163 2:1.0007967 3:1.1043582 4:-0.8184641 
-0 1 1 0 0 0 1 0 1:1.2146409 2:0.93403244 3:1.0772254 4:-0.72554976 
-0 1 1 0 0 0 1 0 1:1.1760656 2:0.91177768 3:0.99582708 4:-0.87421268 
-0 1 1 1 0 1 1 0 1:1.1374902 2:0.91177768 3:0.7787649 4:-0.79988122 
-0 1 1 0 0 0 1 0 1:0.98318887 2:1.1120706 3:1.4570842 4:-0.85562986 
-0 1 1 1 0 1 1 1 1:0.21168213 2:-0.11194143 3:0.23610948 4:-0.98570997 
-0 1 1 0 0 0 1 0 1:0.32740813 2:0.021587148 3:0.3175078 4:-1.3387845 
-0 1 1 0 0 0 1 0 1:0.21168213 2:-0.20096049 3:0.26324224 4:-1.3945332 
-0 1 1 0 0 0 1 0 1:0.36598349 2:-0.022922378 3:0.29037502 4:-1.3387845 
-0 1 1 1 0.2230032058916056 1 1 0 1:0.19239447 2:-0.17870572 3:-0.08948379 4:-1.413116 
-0 1 1 0 0 1 1 0 1:0.15381913 2:-0.24547002 3:0.046180073 4:-1.3945332 
-0 1 1 1 0 1 1 0 1:0.28883281 2:-0.089686669 3:-0.0080854716 4:-1.3573674 
-0 1 1 0.897750090918461 0 1 1 0 1:0.13453145 2:-0.22321525 3:-0.0080854716 4:-1.3945332 
-0 1 1 0 0 0.5182912678363072 1 0 1:0.38527113 2:-0.045177143 3:0.12757839 4:-1.3387845 
-0 1 1 0 0 0 1 0 1:0.38527113 2:-0.089686669 3:0.10044561 4:-1.3387845 
-0 1 1 1 0 1 1 0 1:0.32740813 2:-0.067431904 3:-0.035218243 4:-1.3016187 
-0 1 1 1 0 1 1 0 1:0.30812046 2:-0.045177143 3:0.046180073 4:-1.2458701 
-0 1 1 1 0 1 1 0 1:0.30812046 2:-0.13419619 3:0.10044561 4:-1.2087044 
-0 1 1 1 0 1 1 1 1:1.1567779 2:0.93403244 3:0.94156152 4:-0.20522934 
-0 1 1 1 0 1 1 0 1:1.0217642 2:0.80050385 3:0.91442877 4:-0.53972101 
-0 1 1 0 0 0 1 0 1:1.0796272 2:0.86726815 3:1.0772254 4:-0.8184641 
-0 1 1 0 0 0 1 0 1:1.0989149 2:1.0898157 3:1.4842169 4:-0.78129834 
-0 0 1 0 0 0 1 0 1:1.8511339 2:1.6906943 3:1.8640758 4:-0.14948073 
-0 0 1 0 0 0 1 0 1:1.9668599 2:1.8464777 3:2.0268724 4:-0.093732119 
-0 0 1 0 0 0 1 0 1:1.9282846 2:1.7797134 3:1.9997396 4:-0.13089786 
-0 1 1 0 0 0 1 0 1:1.9475722 2:1.8242229 3:1.9997396 4:-0.019400636 
-0 0 1 0 0 0 1 0 1:1.7739832 2:1.6016754 3:1.9183413 4:-0.29814371 
-0 0 1 0 0 0 1 0 1:1.8125585 2:1.6684396 3:1.836943 4:-0.22381222 
-0 0 1 0 0 0 1 0 1:1.8704216 2:1.6906943 3:1.8098103 4:-0.20522934 
-0 1 1 1 0 0 1 0 1:2.1597366 2:2.0467706 3:2.0268724 4:0.50091976 
-0 0 1 0 0 0 1 0 1:2.3526132 2:2.2693183 3:2.5966606 4:0.53808552 
-0 0 1 0 0 0 1 0 1:2.2947502 2:2.202554 3:2.4338641 4:0.44517115 
-0 1 1 0.6387001554737659 0 0 1 0 1:2.3333256 2:2.2470634 3:2.3795984 4:0.50091976 
-0 1 1 0 0 0 1 0 1:0.32740813 2:0.15511572 3:0.67023385 4:-1.2830359 
-0 1 1 0 0 1 1 0 1:0.32740813 2:0.24413478 3:0.39890611 4:-1.3387845 
-0 1 1 1 1 1 1 1 1:-0.42481092 2:-0.80183911 3:-0.46934259 4:-1.5617789 
-0 1 1 0 0 0 1 0 1:0.82888752 2:0.82275862 3:0.99582708 4:-1.1343729 
-0 1 1 1 1 1 1 1 1:-0.36694792 2:-0.73507482 3:-0.3608115 4:-1.4688646 
-0 1 1 1 1 1 1 1 1:-0.38623559 2:-0.66831052 3:-0.38794428 4:-1.3387845 
-0 1 1 0 0 0 1 0 1:0.59743547 2:0.44442764 3:0.7787649 4:-1.2830359 
-0 1 1 0 0 0 1 0 1:0.55886018 2:0.4666824 3:0.80589771 4:-1.2644531 
-0 1 1 0 0 0 1 0 1:0.21168213 2:0.04384191 3:0.34464055 4:-1.3387845 
-0 1 1 0 0 1 1 0 1:0.2309698 2:0.13286096 3:0.42603889 4:-1.3016187 
-0 1 1 0 0 0 1 0 1:0.26954514 2:0.088351436 3:0.34464055 4:-1.3945332 
-0 1 1 0 0 1 1 0 1:0.44313416 2:0.37766334 3:0.53456998 4:-1.3573674 
-0.7886415923115729 1 1 0 0 0 1 0 1:-0.23193423 2:-0.57929146 3:0.046180073 4:-1.8776878 
-0 1 1 0 0 0 1 0 1:-0.15478356 2:-0.53478193 3:0.046180073 4:-1.8219391 
-0 1 1 0 0 0 1 0 1:-0.2512219 2:-0.62380099 3:0.046180073 4:-1.8405221 
-0 1 1 0 0 0 1 0 1:0.28883281 2:0.088351436 3:0.6973666 4:-1.3759502 
-1 1 1 0 0 0 1 0 1:-0.23193423 2:-0.5570367 3:-0.035218243 4:-1.8776878 
-0 1 1 0 0 0 1 0 1:-0.00048222113 2:-0.33448908 3:0.42603889 4:-1.691859 
-1 1 1 0 0 0 1 0 1:-0.27050957 2:-0.57929146 3:-0.062351014 4:-1.8776878 
-0 1 1 0 0 0 1 0 1:0.038093116 2:0.088351436 3:0.75163215 4:-1.3016187 
-0 1 1 0 0 0 1 0 1:0.67458618 2:0.53344673 3:0.64310104 4:-1.3387845 
-0 1 1 0 0 0 1 0 1:1.2917916 2:1.2901087 3:1.2942876 4:-0.72554976 
-0 0 1 0 0 0 1 0 1:0.73244917 2:0.1106062 3:0.64310104 4:-1.5246131 
-0 1 1 0 0 0 1 0 1:1.7161202 2:1.7574587 3:1.8640758 4:-0.4839724 
-0 0 1 0 0 0 0 0 1:1.6003942 2:1.6239301 3:2.0540051 4:-1.0042928 
-0 0 1 0 0 0 0 0 1:1.7161202 2:1.6906943 3:2.1082706 4:-0.74413264 
-0 0 1 0 0 0 0 0 1:1.7354079 2:1.7129492 3:2.1625364 4:-0.70696688 
-0 0 1 0 0 0 0 0 1:1.7161202 2:1.6906943 3:2.1625364 4:-0.83704698 
-1 0 0 0 0 0 0 0 1:1.1760656 2:1.2901087 3:1.8912085 4:-1.5246131 
-0 0 1 0 0 0 0 0 1:1.8125585 2:1.7574587 3:2.1354034 4:-0.57688677 
-0 0 1 0 0 0 1 0 1:2.0632982 2:1.9800063 3:2.3524656 4:-0.16806361 
-0 0 1 0 0 0 1 0 1:1.9668599 2:1.913242 3:2.2982001 4:-0.31672657 
-0 0 1 0 0 0 0 0 1:1.8125585 2:1.7574587 3:2.1896691 4:-0.61405253 
-0 0 1 0 0 0 0 0 1:1.677545 2:1.6906943 3:2.1354034 4:-0.87421268 
-0 0 1 0 0 0 0 0 1:1.8704216 2:1.8019682 3:2.2710674 4:-0.55830389 
-0 0 1 0 0 0 0 0 1:1.6389695 2:1.6239301 3:2.1354034 4:-0.87421268 
-0 0 1 0 0 0 0 0 1:1.7354079 2:1.6906943 3:2.1082706 4:-0.78129834 
-0 0 1 0 0 0 0 0 1:1.8511339 2:1.8019682 3:2.2439346 4:-0.57688677 
-0 0 1 0 0 0 1 0 1:2.0247231 2:1.9800063 3:2.3524656 4:-0.037983507 
-0 0 1 0 0 0 1 0 1:1.9668599 2:1.913242 3:2.2710674 4:-0.22381222 
-0 0 1 0 0 0 0 0 1:1.7354079 2:1.6906943 3:2.1625364 4:-0.74413264 
-0 0 1 0 0 0 0 0 1:1.8704216 2:1.8019682 3:2.2439346 4:-0.57688677 
-0 0 1 0 0 0 1 0 1:1.9668599 2:1.8909873 3:2.2710674 4:-0.27956083 
-0 0 1 0 0 0 0 0 1:1.7739832 2:1.7352039 3:2.1625364 4:-0.688384 
-0 0 1 0 0 0 0 0 1:1.8318462 2:1.7574587 3:2.1625364 4:-0.61405253 
-0 0 1 0 0 0 0 0 1:1.7546955 2:1.7574587 3:2.1082706 4:-0.74413264 
-0 0 1 0 0 0 0 0 1:1.7932709 2:1.7797134 3:2.1625364 4:-0.66980112 
-0 0 1 0 0 0 1 0 1:1.9475722 2:1.8687325 3:2.2710674 4:-0.40964094 
-0 0 1 0 0 0 0 0 1:1.7932709 2:1.7574587 3:2.1625364 4:-0.66980112 
-0 0 1 0 0 0 1 0 1:1.9475722 2:1.8909873 3:2.2710674 4:-0.31672657 
-0 0 1 0 0 0 0 0 1:1.8125585 2:1.7797134 3:2.1896691 4:-0.66980112 
-0 0 1 0 0 0 1 0 1:1.9282846 2:1.8464777 3:2.2439346 4:-0.39105806 
-0 0 1 0 0 0 0 0 1:1.7932709 2:1.7352039 3:2.1625364 4:-0.688384 
-0 0 1 0 0 0 0 0 1:1.7161202 2:1.6684396 3:2.1625364 4:-0.76271546 
-0 0 1 0 0 0 1 0 1:1.9475722 2:1.8909873 3:2.2710674 4:-0.29814371 
-0 0 1 0 0 0 0 0 1:1.8704216 2:1.8019682 3:2.2710674 4:-0.61405253 
-0 0 1 0 0 0 1 0 1:1.9668599 2:1.8687325 3:2.2982001 4:-0.16806361 
-0 0 1 0 0 0 0 0 1:1.9089969 2:1.8687325 3:2.3253329 4:-0.59546965 
-0 0 1 0 0 0 0 0 1:1.8897092 2:1.8242229 3:2.2439346 4:-0.52113813 
-0 0 1 0 0 0 1 0 1:1.9668599 2:1.8909873 3:2.2710674 4:-0.093732119 
-0 0 1 0 0 0 1 0 1:1.9668599 2:1.8909873 3:2.2710674 4:-0.35389233 
-0 0 1 0 0 0 1 0 1:2.0054352 2:1.8909873 3:2.2710674 4:-0.13089786 
-0 0 1 0 0 0 1 0 1:2.0054352 2:1.913242 3:2.2168019 4:0.017765107 
-0 1 1 0 0 0 0 0 1:0.076668449 2:0.088351436 3:0.72449934 4:-1.6361104 
-1 1 1 0 0 0 1 0 1:0.15381913 2:0.04384191 3:0.42603889 4:-1.7847733 
-1 1 1 0 0 0 0 0 1:0.2309698 2:0.066096671 3:0.67023385 4:-1.7661905 
-1 1 1 0 0 0 0 0 1:-0.01976989 2:-0.045177143 3:0.64310104 4:-1.8219391 
-0 1 1 0 0 0 0 0 1:0.11524379 2:0.04384191 3:0.67023385 4:-1.7476077 
-1 1 1 0 0 0 1 0 1:0.11524379 2:-0.022922378 3:0.45317164 4:-1.8033563 
-1 1 1 0 0 0 0 0 1:0.076668449 2:-0.067431904 3:0.50743717 4:-1.8033563 
-1 1 1 0 0 0 0 0 1:0.15381913 2:0.021587148 3:0.50743717 4:-1.8033563 
-0 1 1 0 0 0 0 0 1:0.19239447 2:0.15511572 3:0.7787649 4:-1.7104419 
-0 1 0 0 0 0 0 0 1:0.34669581 2:0.17737049 3:0.80589771 4:-1.7290248 
-1 1 1 0 0 0 0 0 1:0.36598349 2:0.26638955 3:0.80589771 4:-1.7661905 
-1 1 1 0 0 0 0 0 1:-0.096920565 2:-0.17870572 3:0.48030442 4:-1.8405221 
-1 1 1 0 0 0 0 0 1:0.018805446 2:-0.17870572 3:0.39890611 4:-1.8591049 
-1 1 1 0 0 0 0 0 1:0.2309698 2:0.15511572 3:0.61596829 4:-1.7476077 
-0 1 1 0 0 0 0 0 1:0.30812046 2:0.26638955 3:0.88729602 4:-1.6175276 
-1 1 1 0 0 0 0 0 1:0.38527113 2:0.39991811 3:0.91442877 4:-1.6546932 
-1 1 1 0 0 0 0 0 1:0.40455881 2:0.35540861 3:0.72449934 4:-1.7104419 
-0 0 1 0 0 0 0 0 1:1.7546955 2:1.7797134 3:2.2710674 4:-0.83704698 
-0 0 1 0 0 0 0 0 1:1.7546955 2:1.7352039 3:2.2168019 4:-0.83704698 
-0 0 1 0 0 0 0 0 1:1.8125585 2:1.8242229 3:2.2439346 4:-0.72554976 
-0 0 1 0 0 0 1 0 1:2.0247231 2:2.0022612 3:2.4067311 4:-0.20522934 
-0 0 1 0 0 0 0 0 1:1.8511339 2:1.913242 3:2.3253329 4:-0.42822379 
-1 0 0 0 0 0 0 0 1:1.0603396 2:1.1565801 3:1.7012792 4:-1.5617789 
-1 1 0 0 0 0 0 0 1:0.98318887 2:1.1120706 3:1.7012792 4:-1.5989447 
-0 1 0 0 0 0 0 0 1:0.96390116 2:1.1120706 3:1.8098103 4:-1.5989447 
-1 0 0 0 0 0 0 0 1:1.2725039 2:1.3568729 3:1.9183413 4:-1.4874475 
-0 1 0 0 0 0 0 0 1:1.0989149 2:1.2233443 3:1.8640758 4:-1.413116 
-0 1 1 0 0 0 0 0 1:1.4846683 2:2.2248087 3:2.8137228 4:-0.53972101 
-0 1 0 0 0 0 0 0 1:1.0989149 2:1.2455992 3:1.836943 4:-1.4316988 
-0 1 0 0 0 0 0 0 1:1.0410519 2:1.1565801 3:1.836943 4:-1.413116 
-1 0 0 0 0 0 0 0 1:1.1182026 2:1.2010896 3:1.8098103 4:-1.5803618 
-1 0 0 0 0 0 0 0 1:1.1374902 2:1.2455992 3:1.8640758 4:-1.5431961 
-0 1 0 0 0 0 0 0 1:1.2146409 2:1.7352039 3:2.5423951 4:-0.9485442 
-1 0 0 0 0 0 0 0 1:1.0989149 2:1.1788348 3:1.7555447 4:-1.5246131 
-0 1 0 0 0 0 0 0 1:0.71316153 2:0.84501338 3:1.836943 4:-1.3016187 
-1 1 1 0 0 0 0 0 1:1.3303668 2:1.5126563 3:1.8912085 4:-1.3387845 
-1 0 0 0 0 0 0 0 1:1.0796272 2:1.1343253 3:1.7284119 4:-1.5431961 
-0 1 0 0 0 0 0 0 1:0.98318887 2:1.1565801 3:1.8098103 4:-1.4316988 
-1 0 0 0 0 0 0 0 1:1.1374902 2:1.2010896 3:1.8098103 4:-1.5431961 
-0 0 1 0 0 0 0 0 1:1.3303668 2:1.2455992 3:1.4842169 4:-1.1529558 
-0 0 1 0 0 0 0 0 1:1.3303668 2:1.2455992 3:1.5656153 4:-1.1529558 
-0 0 1 0 0 0 0 0 1:1.2725039 2:1.1788348 3:1.6198808 4:-1.2644531 
-0 0 1 0 0 0 0 0 1:1.677545 2:1.6684396 3:2.0811379 4:-0.89279556 
-0 0 1 0 0 0 0 0 1:1.3303668 2:1.2455992 3:1.7012792 4:-1.1901215 
-0 0 1 0 0 0 1 0 1:2.0247231 2:1.8464777 3:2.0811379 4:-0.40964094 
-0 0 1 0 0 0 0 0 1:1.5811065 2:1.534911 3:1.8640758 4:-1.0972072 
-0 0 1 0 0 0 0 0 1:1.6003942 2:1.5126563 3:1.7826775 4:-1.0972072 
-0 0 1 0 0 0 0 0 1:1.7546955 2:1.7129492 3:2.0811379 4:-0.89279556 
-0 0 1 0 0 0 0 0 1:1.4846683 2:1.4013824 3:1.8098103 4:-1.1901215 
-0 0 1 0 0 0 0 0 1:1.6582572 2:1.6016754 3:1.9454741 4:-0.87421268 
-0 0 1 0 0 0 0 0 1:1.4653805 2:1.4681468 3:1.836943 4:-1.1715386 
-0 0 1 0 0 0 1 0 1:2.487627 2:2.5586302 3:3.1121833 4:0.61241698 
-0 0 1 0 0 0 0 0 1:1.6003942 2:1.6016754 3:2.0268724 4:-1.0414586 
-0 0 1 0 0 0 0 0 1:1.7546955 2:1.6684396 3:2.0540051 4:-0.74413264 
-0 0 1 0 0 0 0 0 1:1.5425313 2:1.534911 3:1.9454741 4:-1.0600414 
-0 0 1 0 0 0 0 0 1:1.6968325 2:1.6461848 3:2.0540051 4:-0.96712708 
-0 0 1 0 0 0 0 0 1:1.5811065 2:1.5571659 3:2.0268724 4:-1.0228757 
-0 0 1 0 0 0 0 0 1:1.619682 2:1.6016754 3:1.9997396 4:-1.0228757 
-0 0 1 0 0 0 0 0 1:1.5232435 2:1.4681468 3:1.8912085 4:-1.1343729 
-0 0 1 0 0 0 0 0 1:1.619682 2:1.6239301 3:1.9454741 4:-0.98570997 
-0 0 1 0 0 0 0 0 1:1.4460928 2:1.2678539 3:1.4842169 4:-1.2458701 
-0 0 1 0 0 0 0 0 1:1.4460928 2:1.4013824 3:1.8098103 4:-1.1529558 
-0 1 0 0 0 0 0 0 1:1.1182026 2:1.2233443 3:1.9454741 4:-1.2458701 
-0 0 1 0 0 0 0 0 1:1.3303668 2:1.2678539 3:1.6198808 4:-1.2272873 
-0 0 1 0 0 0 0 0 1:1.5039558 2:1.2233443 3:1.5656153 4:-1.2830359 
-0 1 1 0 0 0 0 0 1:1.2146409 2:1.2455992 3:1.4299514 4:-1.1901215 
-0 0 1 0 0 0 1 0 1:2.5647779 2:2.5586302 3:3.2207143 4:0.87257719 
-0 1 0 0 0 0 0 0 1:0.30812046 2:0.33315384 3:1.4028187 4:-1.8962706 
-1 1 -0 0 0 0 0 0 1:0.34669581 2:0.42217287 3:1.2671548 4:-1.8962706 
-1 1 0 0 0 0 0 0 1:0.42384648 2:0.51119196 3:1.4299514 4:-1.8591049 
-1 1 0 0 0 0 0 0 1:0.55886018 2:0.60021096 3:1.3214203 4:-1.8219391 
-0 1 0 0 0 0 0 0 1:0.32740813 2:0.28864431 3:1.2400221 4:-1.8962706 
-0 1 0 0 0 0 0 0 1:0.28883281 2:0.24413478 3:1.2400221 4:-1.8776878 
-0 1 0 0 0 0 0 0 1:0.57814783 2:0.77824908 3:1.6198808 4:-1.7290248 
-0 1 0 0 0 0 0 0 1:0.42384648 2:0.35540861 3:1.2671548 4:-1.8591049 
-1 0 0 0 0 0 0 0 1:1.0989149 2:0.97854197 3:1.6741464 4:-1.691859 
-1 1 0 0 0 0 0 0 1:0.38527113 2:0.53344673 3:1.4299514 4:-1.8405221 
-1 1 0 0 0 0 0 0 1:0.19239447 2:0.24413478 3:1.1586237 4:-1.9334364 
-0 1 0 0 0 0 0 0 1:0.30812046 2:0.26638955 3:1.2671548 4:-1.9148535 
-1 1 0 0 0 0 0 0 1:0.26954514 2:0.26638955 3:1.2400221 4:-1.9334364 
-1 1 -0 0 0 0 0 0 1:0.15381913 2:0.19962525 3:1.1314909 4:-1.9334364 
-1 1 0 0 0 0 0 0 1:0.30812046 2:0.31089908 3:1.1314909 4:-1.9148535 
-1 1 0 0 0 0 0 0 1:0.2309698 2:0.28864431 3:1.2128893 4:-1.9334364 
-1 1 0 0 0 0 0 0 1:0.42384648 2:0.62246573 3:1.4570842 4:-1.8219391 
-0 0 1 0 0 0 0 0 1:1.8511339 2:1.7352039 3:2.1082706 4:-0.57688677 
-0 0 1 0 0 0 0 0 1:1.6003942 2:1.4681468 3:1.836943 4:-0.87421268 
-0 0 1 0 0 0 0 0 1:1.7161202 2:1.6239301 3:1.9726069 4:-0.8184641 
-0 0 1 0 0 0 1 0 1:1.8125585 2:1.6906943 3:1.9726069 4:-0.65121824 
-0 0 1 0 0 0 0 0 1:1.8125585 2:1.6906943 3:2.0811379 4:-0.61405253 
-0 0 1 0 0 0 0 0 1:1.8511339 2:1.8019682 3:2.1354034 4:-0.57688677 
-0 0 1 0 0 0 0 0 1:1.619682 2:1.534911 3:1.8912085 4:-0.85562986 
-0 0 1 0 0 0 0 0 1:1.7354079 2:1.6016754 3:1.9997396 4:-0.83704698 
-0 1 1 0 0 0 1 0 1:0.88675052 2:0.66697526 3:1.2128893 4:-1.0972072 
-0 0 1 0 0 0 0 0 1:1.5811065 2:1.534911 3:1.9183413 4:-0.79988122 
-0 1 1 0 0 0 1 0 1:1.0217642 2:0.80050385 3:1.1314909 4:-0.98570997 
-0 0 1 0 0 0 1 0 1:1.6003942 2:1.4681468 3:1.8912085 4:-0.70696688 
-0 0 1 0 0 0 1 0 1:1.8318462 2:1.7352039 3:1.9183413 4:-0.63263535 
-0 0 1 0 0 0 0 0 1:1.619682 2:1.5126563 3:1.8912085 4:-0.8184641 
-0 0 1 0 0 0 1 0 1:1.7739832 2:1.6906943 3:1.9726069 4:-0.66980112 
-0 0 1 0 0 0 0 0 1:1.8511339 2:1.7352039 3:2.1354034 4:-0.63263535 
-0 1 1 0 0 0 0 0 1:1.5232435 2:1.6906943 3:2.2439346 4:-0.55830389 
-0 1 1 0 0 0 1 0 1:2.6226408 2:2.669904 3:3.4106438 4:1.188486 
-0 0 1 0 0 0 0 0 1:1.619682 2:1.534911 3:1.8912085 4:-0.89279556 
-0 1 1 1 0 0 1 0 1:1.4268053 2:1.3346182 3:1.5113498 4:-0.019400636 
-0 0 1 0 0 0 0 0 1:1.6582572 2:1.5571659 3:1.9454741 4:-0.83704698 
-0 0 1 0 0 0 0 0 1:1.5425313 2:1.445892 3:1.7284119 4:-0.92996132 
-0 0 1 0 0 0 0 0 1:1.6968325 2:1.5571659 3:1.8912085 4:-0.83704698 
-0 0 1 0 0 0 0 0 1:1.6003942 2:1.4681468 3:1.836943 4:-0.92996132 
-0 0 1 0 0 0 0 0 1:1.7546955 2:1.6684396 3:1.9997396 4:-0.70696688 
-0 0 1 0 0 0 0 0 1:1.5811065 2:1.445892 3:1.7826775 4:-0.87421268 
-0 0 1 0 0 0 0 0 1:1.619682 2:1.534911 3:1.9997396 4:-0.72554976 
-0 0 1 0 0 0 0 0 1:1.8318462 2:1.6684396 3:2.0268724 4:-0.72554976 
-0 0 1 0 0 0 0 0 1:1.5232435 2:1.4013824 3:1.7284119 4:-0.92996132 
-0 0 1 0 0 0 1 0 1:1.9282846 2:1.8464777 3:2.1896691 4:-0.46538955 
-0 0 1 0 0 0 0 0 1:1.6389695 2:1.5571659 3:2.0268724 4:-0.79988122 
-0 0 1 0 0 0 0 0 1:1.561819 2:1.5126563 3:1.8912085 4:-0.92996132 
-0 0 1 0 0 0 0 0 1:1.8318462 2:1.7797134 3:2.2439346 4:-0.55830389 
-0 0 1 0 0 0 0 0 1:1.7161202 2:1.5571659 3:1.9183413 4:-0.8184641 
-0 0 1 0 0 0 0 0 1:1.5811065 2:1.4904015 3:1.8912085 4:-0.9485442 
-0 0 1 0 0 0 1 0 1:1.6389695 2:1.4904015 3:1.6470137 4:-0.76271546 
-0 0 1 0 0 0 0 0 1:1.7739832 2:1.6684396 3:2.0811379 4:-0.70696688 
-0 0 1 0 0 0 0 0 1:1.6968325 2:1.534911 3:1.9454741 4:-0.79988122 
-0 0 1 0 0 0 0 0 1:1.6582572 2:1.4904015 3:1.9183413 4:-0.83704698 
-0 0 1 0 0 0 0 0 1:1.5425313 2:1.4904015 3:1.8912085 4:-0.91137844 
-0 1 1 1 0 1 1 1 1:1.2917916 2:1.1788348 3:1.2671548 4:0.073513724 
-0 0 1 0 0 0 1 0 1:1.8511339 2:1.7352039 3:2.0268724 4:-0.4839724 
-0 0 1 0 0 0 0 0 1:1.8125585 2:1.7352039 3:2.1082706 4:-0.688384 
-0 0 1 0 0 0 0 0 1:1.7546955 2:1.6684396 3:2.0540051 4:-0.65121824 
-0 1 1 0 0 0 1 0 1:1.561819 2:1.445892 3:1.7284119 4:-0.31672657 
-0 0 1 0 0 0 0 0 1:1.7546955 2:1.6461848 3:1.9997396 4:-0.78129834 
-0 0 1 0 0 0 0 0 1:1.7354079 2:1.6239301 3:2.0268724 4:-0.66980112 
-0 1 1 0 0 0 1 0 1:1.561819 2:1.445892 3:1.7555447 4:-0.33530945 
-0 0 1 0 0 0 0 0 1:1.5811065 2:1.4904015 3:1.8912085 4:-0.89279556 
-0 0 1 0 0 0 0 0 1:1.7354079 2:1.6461848 3:2.0540051 4:-0.74413264 
-0 0 1 0 0 0 1 0 1:2.0054352 2:1.9354968 3:2.2168019 4:-0.20522934 
-0 0 1 0 0 0 0 0 1:1.7161202 2:1.6461848 3:2.0540051 4:-0.74413264 
-0 0 1 0 0 0 0 0 1:1.677545 2:1.5794206 3:1.9183413 4:-0.8184641 
-0 1 1 1 0 1 1 1 1:1.3303668 2:1.3568729 3:1.3756859 4:0.14784521 
-0 0 1 0 0 0 0 0 1:1.6968325 2:1.6239301 3:1.9997396 4:-0.688384 
-0 0 1 0 0 0 0 0 1:1.4846683 2:1.4236373 3:1.8640758 4:-0.98570997 
-0 0 1 0 0 0 0 0 1:1.5811065 2:1.4236373 3:1.8640758 4:-0.89279556 
-0 0 1 0 0 0 0 0 1:1.7546955 2:1.6684396 3:2.0811379 4:-0.65121824 
-0 0 1 0 0 0 0 0 1:1.8897092 2:1.7352039 3:2.1896691 4:-0.66980112 
-0 0 1 0 0 0 0 0 1:1.5811065 2:1.4681468 3:1.9183413 4:-0.92996132 
-0 0 1 0 0 0 0 0 1:1.4268053 2:1.3123634 3:1.7284119 4:-1.0042928 
-0 0 1 0 0 0 1 0 1:2.1018736 2:1.9800063 3:2.2168019 4:-0.093732119 
-0 0 1 0 0 0 0 0 1:1.5811065 2:1.5126563 3:1.9726069 4:-0.83704698 
-0 0 1 0 0 0 0 0 1:1.3110793 2:1.1788348 3:1.7012792 4:-1.0972072 
-0 0 1 0 0 0 1 0 1:2.0440106 2:1.8909873 3:2.2168019 4:-0.35389233 
-0 1 1 0 0 1 1 0 1:-0.57911229 2:0.088351436 3:0.72449934 4:-1.6361104 
-0 0 1 0 0 0 0 0 1:1.4268053 2:1.3123634 3:1.7555447 4:-1.0600414 
-0 0 1 0 0 0 0 0 1:1.5425313 2:1.4236373 3:1.8098103 4:-1.0228757 
-0 0 1 0 0 0 0 0 1:1.8511339 2:1.6906943 3:2.1625364 4:-0.57688677 
-0 0 1 0 0 0 0 0 1:1.4846683 2:1.3346182 3:1.7284119 4:-1.11579 
-0 0 1 0 0 0 0 0 1:1.3110793 2:1.2010896 3:1.6470137 4:-1.1343729 
-0 0 1 0 0 0 0 0 1:1.4846683 2:1.3123634 3:1.6741464 4:-1.0972072 
-0 0 1 0 0 0 0 0 1:1.7546955 2:1.6239301 3:2.2168019 4:-0.66980112 
-0 0 1 0 0 0 1 0 1:2.2754626 2:2.3360825 3:2.9222538 4:0.29650816 
-0 1 1 0 0 0 1 0 1:2.3911886 2:2.4696112 3:2.8951211 4:0.63099986 
-0 1 0 0 0 0 0 0 1:0.4624218 2:0.4666824 3:1.3756859 4:-1.5617789 
-0 0 1 0 0 0 0 0 1:1.2339286 2:1.067561 3:1.4842169 4:-1.3016187 
-0 0 1 0 0 0 0 0 1:1.5811065 2:1.445892 3:1.9183413 4:-0.96712708 
-0 1 0 0 0 0 0 0 1:0.61672318 2:0.5779562 3:1.2671548 4:-1.6175276 
-0 0 1 0 0 0 0 0 1:1.561819 2:1.4681468 3:1.8640758 4:-1.0228757 
-0 0 1 0 0 0 0 0 1:1.1953532 2:1.0453062 3:1.4842169 4:-1.3202016 
-0 0 1 0 0 0 0 0 1:1.6968325 2:1.4904015 3:1.8912085 4:-0.9485442 
-0 0 1 0 0 0 1 0 1:2.2754626 2:2.3138278 3:2.7865901 4:0.22217669 
-0 1 1 0 0 0 1 0 1:2.2175996 2:2.291573 3:2.6780589 4:0.25934243 
-0 0 1 0 0 0 0 0 1:1.8897092 2:1.7797134 3:2.2168019 4:-0.55830389 
-0 1 1 0 0 0 0 0 1:0.61672318 2:0.44442764 3:0.96869433 4:-1.5989447 
-1 1 1 0 0 0 0 0 1:0.73244917 2:0.64472049 3:1.1586237 4:-1.5803618 
-0 0 1 0 0 0 0 0 1:1.2725039 2:1.0230515 3:1.3756859 4:-1.1901215 
-0 0 1 0 0 0 0 0 1:1.0410519 2:0.91177768 3:1.3485532 4:-1.4316988 
-0 0 1 0 0 0 0 0 1:1.3110793 2:1.1788348 3:1.5113498 4:-1.2087044 
-0 0 1 0 0 0 0 0 1:1.3689423 2:1.2233443 3:1.6198808 4:-1.11579 
-1 0 0 0 0 0 0 0 1:0.65529847 2:0.53344673 3:1.1043582 4:-1.691859 
-1 0 0 0 0 0 0 0 1:0.57814783 2:0.42217287 3:0.99582708 4:-1.7290248 
-0 1 1 0 0 0 0 0 1:0.84817517 2:0.84501338 3:1.3214203 4:-1.4688646 
-1 1 -0 0 0 0 0 0 1:0.63601083 2:0.51119196 3:1.0772254 4:-1.691859 
-1 1 0 0 0 0 0 0 1:0.65529847 2:0.55570143 3:1.1857564 4:-1.6732762 
-1 1 1 0 0 0 0 0 1:0.80959982 2:0.77824908 3:1.1586237 4:-1.5431961 
-1 1 1 0 0 0 0 0 1:0.73244917 2:0.71148479 3:1.1586237 4:-1.6361104 
-1 1 0 0 0 0 0 0 1:0.73244917 2:0.68923002 3:1.1857564 4:-1.6361104 
-1 0 0 0 0 0 0 0 1:0.71316153 2:0.60021096 3:1.2128893 4:-1.6732762 
-1 0 0 0 0 0 0 0 1:0.77102453 2:0.64472049 3:1.1586237 4:-1.6546932 
-1 1 1 0 0 0 0 0 1:0.59743547 2:0.4666824 3:0.88729602 4:-1.691859 
-1 0 0 0 0 0 0 0 1:0.82888752 2:0.68923002 3:1.2942876 4:-1.6361104 
-1 1 0 0 0 0 0 0 1:0.71316153 2:0.73373955 3:1.2671548 4:-1.6361104 
-1 0 0 0 0 0 0 0 1:0.80959982 2:0.64472049 3:1.1857564 4:-1.6546932 
-1 0 1 0 0 0 0 0 1:0.79031217 2:0.60021096 3:1.0500926 4:-1.6546932 
-1 0 1 0 0 0 0 0 1:0.71316153 2:0.5779562 3:0.99582708 4:-1.6546932 
-1 0 0 0 0 0 0 0 1:0.75173682 2:0.64472049 3:1.1857564 4:-1.6175276 
-1 0 1 0 0 0 0 0 1:0.86746287 2:0.75599432 3:1.1857564 4:-1.5617789 
-1 0 0 0 0 0 0 0 1:0.75173682 2:0.60021096 3:1.1857564 4:-1.6546932 
-1 1 1 0 0 0 0 0 1:0.40455881 2:0.22188002 3:0.6973666 4:-1.7476077 
-1 0 0 0 0 0 0 0 1:0.67458618 2:0.53344673 3:1.0772254 4:-1.6546932 
-0 1 0 0 0 0 0 0 1:0.69387382 2:0.55570143 3:1.1043582 4:-1.5989447 
-1 1 1 0 0 0 0 0 1:0.71316153 2:0.60021096 3:1.0500926 4:-1.6732762 
-1 1 1 0 0 0 0 0 1:0.63601083 2:0.4666824 3:0.88729602 4:-1.6546932 
-1 1 0 0 0 0 0 0 1:0.57814783 2:0.51119196 3:1.0772254 4:-1.7104419 
-1 0 0 0 0 0 0 0 1:0.79031217 2:0.60021096 3:1.1586237 4:-1.6546932 
-1 0 0 0 0 0 0 0 1:0.80959982 2:0.5779562 3:1.0772254 4:-1.6361104 
-0 0 1 0 0 0 0 0 1:1.0603396 2:0.82275862 3:1.2671548 4:-1.4502817 
-1 1 1 0 0 0 0 0 1:0.50099713 2:0.42217287 3:0.94156152 4:-1.7476077 
-0 1 0 0 0 0 0 0 1:1.1374902 2:1.4013824 3:2.1625364 4:-1.2272873 
-1 1 1 0 0 0 0 0 1:0.79031217 2:0.73373955 3:1.1857564 4:-1.5617789 
-1 1 0 0 0 0 0 0 1:0.59743547 2:0.4666824 3:1.0229598 4:-1.6546932 
-0 1 -0 0 0 0 0 0 1:-0.55982459 2:-0.62380099 3:0.75163215 4:-2.0820994 
-1 1 1 0 0 0 0 0 1:0.92532587 2:1.3568729 3:1.5384825 4:-1.3759502 
-0 0 1 0 0 0 0 0 1:0.96390116 2:0.75599432 3:1.1314909 4:-1.4502817 
-1 0 1 0 0 0 0 0 1:0.67458618 2:0.51119196 3:0.99582708 4:-1.6361104 
-1 0 1 0 0 0 0 0 1:0.96390116 2:0.77824908 3:1.1586237 4:-1.4874475 
-1 0 1 0 0 0 0 0 1:0.77102453 2:0.5779562 3:1.0500926 4:-1.5803618 
-0 0 1 0 0 0 0 0 1:1.5425313 2:1.3568729 3:1.7826775 4:-0.83704698 
-0 0 1 0 0 0 0 0 1:1.5232435 2:1.3346182 3:1.6741464 4:-0.9485442 
-0 0 1 0 0 0 0 0 1:1.5232435 2:1.3791277 3:1.6741464 4:-0.92996132 
-0 0 1 0 0 0 0 0 1:1.5425313 2:1.3568729 3:1.7284119 4:-0.9485442 
-0 0 1 0 0 0 0 0 1:1.561819 2:1.4013824 3:1.7555447 4:-0.87421268 
-0 0 1 0 0 0 0 0 1:1.5811065 2:1.4681468 3:1.836943 4:-0.89279556 
-0 0 1 0 0 0 0 0 1:1.5425313 2:1.3791277 3:1.7555447 4:-0.87421268 
-0 0 1 0 0 0 0 0 1:1.5232435 2:1.3791277 3:1.7555447 4:-0.98570997 
-0 0 1 0 0 0 0 0 1:1.5425313 2:1.3791277 3:1.7284119 4:-0.91137844 
-0 0 1 0 0 0 1 0 1:1.561819 2:1.4236373 3:1.7284119 4:-0.85562986 
-0 0 1 0 0 0 0 0 1:1.5232435 2:1.3791277 3:1.836943 4:-0.98570997 
-0 0 1 0 0 0 0 0 1:1.6389695 2:1.4681468 3:1.7826775 4:-0.83704698 
-0 0 1 0 0 0 1 0 1:1.7546955 2:1.6461848 3:1.9726069 4:-0.63263535 
-0 0 1 0 0 0 0 0 1:1.5811065 2:1.445892 3:1.7555447 4:-0.89279556 
-0 0 1 0 0 0 0 0 1:1.5811065 2:1.4236373 3:1.836943 4:-0.85562986 
-0 0 1 0 0 0 0 0 1:1.5425313 2:1.3568729 3:1.7012792 4:-0.9485442 
-0 0 1 0 0 0 0 0 1:1.5425313 2:1.3791277 3:1.7826775 4:-0.91137844 
-0 0 1 0 0 0 0 0 1:1.6582572 2:1.5126563 3:1.8640758 4:-0.74413264 
-0 0 1 0 0 0 0 0 1:1.5811065 2:1.3346182 3:1.6198808 4:-1.0042928 
-0 0 1 0 0 0 1 0 1:1.5425313 2:1.4013824 3:1.6198808 4:-0.70696688 
-0 0 1 0 0 0 0 0 1:1.1374902 2:0.91177768 3:1.3756859 4:-1.2830359 
-0 0 1 0 0 0 0 0 1:1.1374902 2:0.95628721 3:1.4028187 4:-1.3202016 
-0 0 1 0 0 0 0 0 1:1.6003942 2:1.4236373 3:1.8098103 4:-0.85562986 
-0 0 1 0 0 0 0 0 1:1.1182026 2:0.91177768 3:1.2942876 4:-1.3016187 
-0 0 1 0 0 0 0 0 1:1.1374902 2:0.93403244 3:1.4570842 4:-1.2830359 
-0 0 1 0 0 0 1 0 1:1.8318462 2:1.7129492 3:2.0540051 4:-0.59546965 
-0 0 1 0 0 0 0 0 1:1.4268053 2:1.2455992 3:1.592748 4:-1.0414586 
-0 0 1 0 0 0 0 0 1:1.1374902 2:0.95628721 3:1.4299514 4:-1.2458701 
-0 0 1 0 0 0 0 0 1:1.1374902 2:0.93403244 3:1.3756859 4:-1.2830359 
-0 0 1 0 0 0 0 0 1:1.1182026 2:0.86726815 3:1.3485532 4:-1.3387845 
-0 0 1 0 0 0 0 0 1:1.8318462 2:1.6906943 3:2.0540051 4:-0.61405253 
-0 0 1 0 0 0 0 0 1:1.1567779 2:1.0230515 3:1.5384825 4:-1.2272873 
-0 0 1 0 0 0 0 0 1:1.1374902 2:1.067561 3:1.3214203 4:-1.2644531 
-0 0 1 0 0 0 0 0 1:1.7161202 2:1.5794206 3:1.9454741 4:-0.76271546 
-0 0 1 0 0 0 0 0 1:1.0989149 2:0.91177768 3:1.2671548 4:-1.3202016 
-0 0 1 0 0 0 0 0 1:1.2146409 2:1.0230515 3:1.5113498 4:-1.2458701 
-0 0 1 0 0 0 1 0 1:1.4268053 2:1.3346182 3:1.6198808 4:-0.9485442 
-0 0 1 0 0 0 0 0 1:1.1374902 2:0.95628721 3:1.2942876 4:-1.3016187 
-0 0 1 0 0 0 1 0 1:1.8318462 2:1.6906943 3:2.0268724 4:-0.61405253 
-0 0 1 0 0 0 0 0 1:1.2917916 2:1.1565801 3:1.5656153 4:-1.11579 
-0 0 1 0 0 0 0 0 1:1.5039558 2:1.3791277 3:1.7555447 4:-0.9485442 
-0 0 1 0 0 0 0 0 1:1.2917916 2:1.1343253 3:1.5384825 4:-1.1343729 
-0 0 1 0 0 0 0 0 1:1.1760656 2:0.91177768 3:1.2942876 4:-1.2830359 
-0 0 1 0 0 0 0 0 1:1.0796272 2:0.97854197 3:1.4028187 4:-1.2830359 
-0 0 1 0 0 0 0 0 1:1.1760656 2:0.91177768 3:1.3214203 4:-1.3016187 
-0 0 1 0 0 0 0 0 1:1.561819 2:1.4013824 3:1.7826775 4:-0.9485442 
-0 0 1 0 0 0 0 0 1:1.1760656 2:0.97854197 3:1.3214203 4:-1.2644531 
-0 0 1 0 0 0 0 0 1:1.3110793 2:1.1343253 3:1.4842169 4:-1.1529558 
-0 1 1 0 0 0 0 0 1:1.2725039 2:1.2901087 3:1.6470137 4:-1.0972072 
-0 0 1 0 0 0 0 0 1:1.1374902 2:0.86726815 3:1.2942876 4:-1.3016187 
-0 0 1 0 0 0 0 0 1:1.1760656 2:1.0007967 3:1.3756859 4:-1.1715386 
-0 0 1 0 0 0 0 0 1:1.2339286 2:1.0898157 3:1.5656153 4:-1.1715386 
-0 0 1 0 0 0 0 0 1:1.1374902 2:0.88952291 3:1.3485532 4:-1.3016187 
-0 0 1 0 0 0 0 0 1:1.8125585 2:1.6684396 3:2.0268724 4:-0.63263535 
-0 0 1 0 0 0 0 0 1:1.1760656 2:0.95628721 3:1.3756859 4:-1.3016187 
-0 0 1 0 0 0 0 0 1:1.1374902 2:0.93403244 3:1.3756859 4:-1.2830359 
-0 0 1 0 0 0 0 0 1:1.3110793 2:1.1120706 3:1.4570842 4:-1.1529558 
-0 0 1 0 0 0 0 0 1:1.4075176 2:1.2010896 3:1.5656153 4:-1.0786242 
-0 0 1 0 0 0 0 0 1:1.6968325 2:1.5794206 3:1.9183413 4:-0.76271546 
-0 0 1 0 0 0 0 0 1:1.1182026 2:0.88952291 3:1.3214203 4:-1.3202016 
-0 0 1 0 0 0 0 0 1:1.3303668 2:1.0898157 3:1.4842169 4:-1.1529558 
-0 0 1 0 0 0 0 0 1:1.561819 2:1.3791277 3:1.8098103 4:-0.91137844 
-0 0 1 0 0 0 0 0 1:1.1182026 2:0.97854197 3:1.3756859 4:-1.2458701 
-0 0 1 0 0 0 0 0 1:1.1567779 2:0.91177768 3:1.3485532 4:-1.2644531 
-0 0 1 0 0 0 0 0 1:1.1567779 2:0.88952291 3:1.3485532 4:-1.3016187 
-0 0 1 0 0 0 0 0 1:1.4075176 2:1.1343253 3:1.5384825 4:-1.0600414 
-0 0 1 0 0 0 0 0 1:1.7932709 2:1.6461848 3:2.0268724 4:-0.61405253 
-0 0 1 0 0 0 1 0 1:1.2146409 2:1.067561 3:1.3756859 4:-1.11579 
-0 0 1 0 0 0 0 0 1:1.1567779 2:0.93403244 3:1.2400221 4:-1.2458701 
-0 0 1 0 0 0 0 0 1:1.6003942 2:1.4236373 3:1.836943 4:-0.91137844 
-0 0 1 0 0 0 0 0 1:1.2725039 2:1.1565801 3:1.5113498 4:-1.0972072 
-0 0 1 0 0 0 0 0 1:1.3110793 2:1.1565801 3:1.4842169 4:-1.0786242 
-0 0 1 0 0 0 0 0 1:1.2339286 2:1.0898157 3:1.4028187 4:-1.1715386 
-0 0 1 0 0 0 0 0 1:1.1760656 2:0.97854197 3:1.3485532 4:-1.2458701 
-0 0 1 0 0 0 0 0 1:1.1182026 2:0.93403244 3:1.4028187 4:-1.2272873 
-0 0 1 0 0 0 0 0 1:1.0989149 2:0.91177768 3:1.3485532 4:-1.2830359 
-0 0 1 0 0 0 0 0 1:1.4460928 2:1.1120706 3:1.4842169 4:-1.1715386 
-0 0 1 0 0 0 0 0 1:1.6968325 2:1.6016754 3:1.9454741 4:-0.74413264 
-0 0 1 0 0 0 0 0 1:1.1567779 2:0.88952291 3:1.2942876 4:-1.3016187 
-0 0 1 0 0 0 0 0 1:1.2146409 2:0.97854197 3:1.3756859 4:-1.2272873 
-0 0 1 0 0 0 0 0 1:1.4268053 2:1.2455992 3:1.6198808 4:-1.11579 
-0 0 1 0 0 0 1 0 1:1.4460928 2:1.2233443 3:1.5113498 4:-1.0042928 
-0 0 1 0 0 0 0 0 1:1.3689423 2:1.1788348 3:1.5656153 4:-1.0600414 
-0 0 1 0 0 0 0 0 1:1.1374902 2:0.88952291 3:1.2128893 4:-1.3202016 
-0 0 1 0 0 0 0 0 1:1.5811065 2:1.3346182 3:1.6741464 4:-0.9485442 
-0 0 1 0 0 0 0 0 1:1.5811065 2:1.4013824 3:1.7555447 4:-0.91137844 
-0 0 1 0 0 0 0 0 1:1.1374902 2:0.91177768 3:1.3214203 4:-1.3016187 
-0 0 1 0 0 0 0 0 1:1.2146409 2:0.97854197 3:1.3756859 4:-1.2458701 
-0 0 1 0 0 0 0 0 1:1.3303668 2:1.1788348 3:1.4842169 4:-1.1901215 
-0 0 1 0 0 0 0 0 1:1.2725039 2:1.0230515 3:1.4028187 4:-1.2272873 
-0 0 1 0 0 0 0 0 1:1.2725039 2:1.0453062 3:1.4028187 4:-1.1529558 
-0 0 1 0 0 0 0 0 1:1.0989149 2:0.91177768 3:1.2671548 4:-1.3202016 
-0 0 1 0 0 0 0 0 1:1.2339286 2:1.0007967 3:1.4028187 4:-1.2458701 
-0 0 1 0 0 0 0 0 1:1.2725039 2:1.067561 3:1.3756859 4:-1.1715386 
-0 0 1 0 0 0 0 0 1:1.0989149 2:1.0007967 3:1.4842169 4:-1.2644531 
-0 0 1 0 0 0 0 0 1:1.2339286 2:1.0230515 3:1.4028187 4:-1.2087044 
-0 0 1 0 0 0 0 0 1:1.7546955 2:1.6016754 3:1.9997396 4:-0.70696688 
-0 0 1 0 0 0 0 0 1:1.1567779 2:0.93403244 3:1.2942876 4:-1.3202016 
-0 0 1 0 0 0 0 0 1:1.2339286 2:1.0007967 3:1.4028187 4:-1.1529558 
-0 0 1 0 0 0 0 0 1:1.1374902 2:1.067561 3:1.4842169 4:-1.2644531 
-0 0 1 0 0 0 0 0 1:1.1567779 2:0.91177768 3:1.2942876 4:-1.2644531 
-0 0 1 0 0 0 0 0 1:1.6389695 2:1.5126563 3:1.8640758 4:-0.78129834 
-0 1 1 0 0 0 0 0 1:1.0796272 2:1.067561 3:1.4842169 4:-1.2087044 
-0 1 1 0 0 0 0 0 1:1.1567779 2:1.1120706 3:1.4570842 4:-1.2087044 
-0 0 1 0 0 0 1 0 1:1.7161202 2:1.5571659 3:1.8098103 4:-0.59546965 
-0 0 1 0 0 0 0 0 1:1.4653805 2:1.1565801 3:1.4842169 4:-1.11579 
-0 0 1 0 0 0 0 0 1:1.1374902 2:0.93403244 3:1.4299514 4:-1.2644531 
-0 0 1 0 0 0 0 0 1:1.4268053 2:1.2678539 3:1.7012792 4:-1.0228757 
-0 0 1 0 0 0 0 0 1:1.3110793 2:1.1788348 3:1.5113498 4:-1.1529558 
-0 0 1 0 0 0 0 0 1:1.1953532 2:1.0230515 3:1.4028187 4:-1.1343729 
-0 0 1 0 0 0 0 0 1:1.0989149 2:0.88952291 3:1.3756859 4:-1.3016187 
-0 0 1 0 0 0 0 0 1:1.3689423 2:1.2455992 3:1.5656153 4:-1.11579 
-0 0 1 0 0 0 0 0 1:1.2339286 2:1.067561 3:1.4570842 4:-1.1343729 
-0 0 1 0 0 0 0 0 1:1.4460928 2:1.1565801 3:1.4842169 4:-1.1343729 
-0 0 1 0 0 0 0 0 1:1.2339286 2:0.97854197 3:1.3214203 4:-1.2272873 
-0 0 1 0 0 0 0 0 1:1.7546955 2:1.5794206 3:1.9183413 4:-0.76271546 
-0 0 1 0 0 0 0 0 1:1.0989149 2:0.88952291 3:1.3485532 4:-1.3387845 
-0 0 1 0 0 0 0 0 1:1.1567779 2:0.88952291 3:1.2671548 4:-1.2830359 
-0 0 1 0 0 0 0 0 1:1.5425313 2:1.3791277 3:1.7555447 4:-0.91137844 
-0 0 1 0 0 0 0 0 1:1.1374902 2:0.93403244 3:1.2942876 4:-1.3202016 
-0 0 1 0 0 0 0 0 1:1.3110793 2:1.0898157 3:1.3756859 4:-1.1343729 
-0 0 1 0 0 0 0 0 1:1.3303668 2:1.0453062 3:1.3485532 4:-1.2272873 
-0 0 1 0 0 0 0 0 1:1.1760656 2:0.91177768 3:1.3485532 4:-1.3016187 
-0 0 1 0 0 0 0 0 1:1.6003942 2:1.445892 3:1.8098103 4:-0.85562986 
-0 0 1 0 0 0 0 0 1:1.0989149 2:0.84501338 3:1.2128893 4:-1.3202016 
-0 0 1 0 0 0 0 0 1:1.2339286 2:0.97854197 3:1.4028187 4:-1.2087044 
-0 0 1 0 0 0 0 0 1:1.1567779 2:0.93403244 3:1.3214203 4:-1.3016187 
-0 0 1 0 0 0 0 0 1:1.0989149 2:0.88952291 3:1.4028187 4:-1.2644531 
-0 0 1 0 0 0 0 0 1:1.4653805 2:1.2678539 3:1.5384825 4:-1.0786242 
-0 0 1 0 0 0 0 0 1:1.1182026 2:0.88952291 3:1.3214203 4:-1.2272873 
-0 0 1 0 0 0 0 0 1:1.3496546 2:1.1788348 3:1.6198808 4:-1.0600414 
-0 0 1 0 0 0 1 0 1:1.2339286 2:1.0007967 3:1.3485532 4:-1.1343729 
-0 0 1 0 0 0 0 0 1:1.0989149 2:0.86726815 3:1.3485532 4:-1.2830359 
-0 0 1 0 0 0 0 0 1:1.2917916 2:1.0453062 3:1.4842169 4:-1.1901215 
-0 0 1 0 0 0 0 0 1:1.7739832 2:1.6684396 3:1.9997396 4:-0.70696688 
-0 0 1 0 0 0 0 0 1:1.1567779 2:0.88952291 3:1.3485532 4:-1.3016187 
-0 0 1 0 0 0 0 0 1:1.1760656 2:0.91177768 3:1.3214203 4:-1.2830359 
-0 0 1 0 0 0 0 0 1:1.5811065 2:1.3791277 3:1.7284119 4:-0.91137844 
-0 0 1 0 0 0 0 0 1:1.0989149 2:0.86726815 3:1.2942876 4:-1.3202016 
-0 0 1 0 0 0 0 0 1:1.2532163 2:1.0007967 3:1.3756859 4:-1.1529558 
-0 0 1 0 0 0 0 0 1:1.0989149 2:0.88952291 3:1.2400221 4:-1.2644531 
-0 0 1 0 0 0 0 0 1:1.6582572 2:1.4013824 3:1.7284119 4:-0.98570997 
-0 0 1 0 0 0 0 0 1:1.0796272 2:0.95628721 3:1.4028187 4:-1.2458701 
-0 0 1 0 0 0 0 0 1:1.2339286 2:1.1565801 3:1.5384825 4:-1.1901215 
-0 0 1 0 0 0 0 0 1:1.2725039 2:1.1343253 3:1.5384825 4:-1.1901215 
-0 0 1 0 0 0 0 0 1:1.7739832 2:1.6461848 3:1.9997396 4:-0.72554976 
-0 0 1 0 0 0 0 0 1:1.3882298 2:1.2010896 3:1.5656153 4:-1.0786242 
-0 0 1 0 0 0 0 0 1:1.0989149 2:0.88952291 3:1.3214203 4:-1.3202016 
-0 0 1 0 0 0 0 0 1:1.5425313 2:1.3791277 3:1.7555447 4:-0.91137844 
-0 0 1 0 0 0 0 0 1:1.1567779 2:0.95628721 3:1.3485532 4:-1.2830359 
-0 0 1 0 0 0 0 0 1:1.1182026 2:0.88952291 3:1.3485532 4:-1.2830359 
-0 0 1 0 0 0 0 0 1:1.4846683 2:1.3791277 3:1.7826775 4:-0.9485442 
-0 0 1 0 0 0 0 0 1:1.1374902 2:0.93403244 3:1.2671548 4:-1.2458701 
-0 0 1 0 0 0 0 0 1:1.4846683 2:1.2455992 3:1.6741464 4:-0.96712708 
-0 0 1 0 0 0 0 0 1:1.5425313 2:1.3791277 3:1.6741464 4:-1.0042928 
-0 0 1 0 0 0 0 0 1:1.1374902 2:0.91177768 3:1.2942876 4:-1.3016187 
-0 0 1 0 0 0 1 0 1:1.3303668 2:1.0898157 3:1.4028187 4:-0.96712708 
-0 0 1 0 0 0 0 0 1:1.1953532 2:0.95628721 3:1.2942876 4:-1.2644531 
-0 0 1 0 0 0 1 0 1:1.3496546 2:1.0453062 3:1.2942876 4:-1.1529558 
-0 0 1 0 0 0 0 0 1:1.619682 2:1.4904015 3:1.8912085 4:-0.87421268 
-0 0 1 0 0 0 0 0 1:1.4460928 2:1.0898157 3:1.3485532 4:-1.1343729 
-0 0 1 0 0 0 0 0 1:1.2917916 2:1.0230515 3:1.2671548 4:-1.2272873 
-0 0 1 0 0 0 0 0 1:1.8125585 2:1.5571659 3:1.8912085 4:-0.85562986 
-0 0 1 0 0 0 0 0 1:1.1760656 2:0.97854197 3:1.2671548 4:-1.2644531 
-0 0 1 0 0 0 1 0 1:1.4268053 2:1.2233443 3:1.4299514 4:-1.0414586 
-0 0 1 0 0 0 0 0 1:1.1567779 2:0.91177768 3:1.2942876 4:-1.3016187 
-0 0 1 0 0 0 1 0 1:1.4075176 2:1.1343253 3:1.2671548 4:-1.11579 
-0 0 1 0 0 0 0 0 1:1.1567779 2:0.97854197 3:1.3485532 4:-1.2272873 
-0 0 1 0 0 0 0 0 1:1.1953532 2:0.95628721 3:1.4299514 4:-1.2644531 
-0 1 1 0 0 0 1 0 1:1.2532163 2:1.1343253 3:1.2671548 4:-1.0414586 
-0 0 1 0 0 0 0 0 1:1.5425313 2:1.4013824 3:1.7826775 4:-0.9485442 
-0 0 1 0 0 0 0 0 1:1.3882298 2:1.2233443 3:1.6198808 4:-1.0786242 
-0 0 1 0 0 0 1 0 1:1.2339286 2:0.97854197 3:1.2400221 4:-1.2087044 
-0 0 1 0 0 0 0 0 1:1.6582572 2:1.5126563 3:1.8640758 4:-0.83704698 
-0 0 1 0 0 0 0 0 1:1.2917916 2:1.1343253 3:1.592748 4:-1.2458701 
-0 0 1 0 0 0 0 0 1:1.2725039 2:1.067561 3:1.3214203 4:-1.1901215 
-0 0 1 0 0 0 0 0 1:1.6582572 2:1.4904015 3:1.8912085 4:-0.79988122 
-0 0 1 0 0 0 0 0 1:1.2917916 2:1.067561 3:1.4299514 4:-1.1715386 
-0 0 1 0 0 0 0 0 1:1.4460928 2:1.1343253 3:1.4028187 4:-1.1343729 
-0 0 1 0 0 0 0 0 1:1.6968325 2:1.4236373 3:1.7826775 4:-0.89279556 
-0 0 1 0 0 0 1 0 1:1.3882298 2:1.2678539 3:1.4842169 4:-1.0228757 
-0 0 1 0 0 0 1 0 1:1.5232435 2:1.2455992 3:1.4570842 4:-0.85562986 
-0 0 1 0 0 0 0 0 1:1.7546955 2:1.6239301 3:1.9726069 4:-0.688384 
-0 0 1 0 0 0 1 0 1:1.619682 2:1.4013824 3:1.6470137 4:-0.91137844 
-0 0 1 0 0 0 0 0 1:1.2146409 2:1.0230515 3:1.3756859 4:-1.1901215 
-0 0 1 0 0 0 1 0 1:1.619682 2:1.4236373 3:1.7012792 4:-0.87421268 
-0 0 1 0 0 0 1 0 1:1.7546955 2:1.5571659 3:1.6470137 4:-0.70696688 
-0 0 1 0 0 0 1 0 1:1.7932709 2:1.534911 3:1.6741464 4:-0.688384 
-0 0 1 0 0 0 0 0 1:1.619682 2:1.4681468 3:1.7826775 4:-0.83704698 
-0 0 1 0 0 0 1 0 1:1.6582572 2:1.4236373 3:1.7012792 4:-0.83704698 
-0 0 1 0 0 0 0 0 1:1.5811065 2:1.445892 3:1.836943 4:-0.91137844 
-0 0 1 0 0 0 1 0 1:1.677545 2:1.445892 3:1.6470137 4:-0.79988122 
-0 0 1 0 0 0 1 0 1:1.619682 2:1.5126563 3:1.7284119 4:-0.79988122 
-0 0 1 0 0 0 0 0 1:1.7161202 2:1.6239301 3:1.9997396 4:-0.688384 
-0 0 1 0 0 0 1 0 1:1.6582572 2:1.5126563 3:1.6741464 4:-0.79988122 
-0 0 1 0 0 0 1 0 1:1.6582572 2:1.4681468 3:1.6470137 4:-0.78129834 
-0 0 1 0 0 0 0 0 1:1.5811065 2:1.445892 3:1.8098103 4:-0.89279556 
-0 0 1 0 0 0 1 0 1:1.6968325 2:1.5126563 3:1.7284119 4:-0.76271546 
-0 0 1 0 0 0 1 0 1:1.7354079 2:1.534911 3:1.7284119 4:-0.688384 
-0 0 1 0 0 0 0 0 1:1.619682 2:1.4236373 3:1.7284119 4:-0.87421268 
-0 0 1 0 0 0 1 0 1:1.7932709 2:1.534911 3:1.7012792 4:-0.72554976 
-0 0 1 0 0 0 1 0 1:1.6582572 2:1.445892 3:1.6741464 4:-0.78129834 
-0 0 1 0 0 0 1 0 1:1.6389695 2:1.445892 3:1.7012792 4:-0.87421268 
-0 0 1 0 0 0 1 0 1:1.6003942 2:1.4236373 3:1.6198808 4:-0.85562986 
-0 0 1 0 0 0 0 0 1:1.2339286 2:1.0453062 3:1.4570842 4:-1.1901215 
-0 0 1 0 0 0 1 0 1:1.6582572 2:1.4681468 3:1.6741464 4:-0.8184641 
-0 0 1 0 0 0 0 0 1:1.6003942 2:1.3791277 3:1.7012792 4:-0.87421268 
-0 0 1 0 0 0 0 0 1:1.5811065 2:1.445892 3:1.8098103 4:-0.92996132 
-0 0 1 0 0 0 1 0 1:1.8897092 2:1.6239301 3:1.7826775 4:-0.63263535 
-0 0 1 0 0 0 0 0 1:1.6003942 2:1.3568729 3:1.7555447 4:-0.87421268 
-0 0 1 0 0 0 0 0 1:1.5425313 2:1.3791277 3:1.8098103 4:-0.91137844 
-0 0 1 0 0 0 0 0 1:1.5811065 2:1.3791277 3:1.7012792 4:-0.91137844 
-0 0 1 0 0 0 0 0 1:1.561819 2:1.3568729 3:1.7284119 4:-0.89279556 
-0 0 1 0 0 0 0 0 1:1.677545 2:1.4681468 3:1.836943 4:-0.79988122 
-0 0 1 0 0 0 0 0 1:1.6003942 2:1.4236373 3:1.6741464 4:-0.92996132 
-0 0 1 0 0 0 1 0 1:1.7161202 2:1.4681468 3:1.7555447 4:-0.8184641 
-0 0 1 0 0 0 0 0 1:1.5425313 2:1.3791277 3:1.7555447 4:-0.91137844 
-0 0 1 0 0 0 1 0 1:1.619682 2:1.445892 3:1.7012792 4:-0.8184641 
-0 0 1 0 0 0 1 0 1:1.619682 2:1.4013824 3:1.7284119 4:-0.83704698 
-0 0 1 0 0 0 1 0 1:1.5811065 2:1.4013824 3:1.6741464 4:-0.87421268 
-0 0 1 0 0 0 1 0 1:1.6582572 2:1.534911 3:1.7284119 4:-0.78129834 
-0 0 1 0 0 0 0 0 1:1.3110793 2:1.1343253 3:1.4842169 4:-1.0600414 
-0 0 1 0 0 0 0 0 1:1.619682 2:1.445892 3:1.836943 4:-0.87421268 
-0 0 1 0 0 0 1 0 1:1.6003942 2:1.445892 3:1.7012792 4:-0.85562986 
-0 0 1 0 0 0 0 0 1:1.619682 2:1.4681468 3:1.8912085 4:-0.85562986 
-0 0 1 0 0 0 0 0 1:1.677545 2:1.4681468 3:1.836943 4:-0.79988122 
-0 0 1 0 0 0 1 0 1:1.5811065 2:1.4013824 3:1.6741464 4:-0.85562986 
-0 0 1 0 0 0 0 0 1:1.3110793 2:1.1343253 3:1.5113498 4:-1.0786242 
-0 0 1 0 0 0 0 0 1:1.5232435 2:1.3791277 3:1.6741464 4:-0.96712708 
-0 0 1 0 0 0 1 0 1:1.6582572 2:1.445892 3:1.6470137 4:-0.8184641 
-0 0 1 0 0 0 0 0 1:1.561819 2:1.4013824 3:1.7826775 4:-0.89279556 
-0 0 1 0 0 0 0 0 1:1.6582572 2:1.4681468 3:1.8640758 4:-0.83704698 
-0 0 1 0 0 0 1 0 1:1.6003942 2:1.445892 3:1.6741464 4:-0.85562986 
-0 0 1 0 0 0 0 0 1:1.5811065 2:1.4236373 3:1.7555447 4:-0.91137844 
-0 0 1 0 0 0 0 0 1:1.6389695 2:1.4681468 3:1.836943 4:-0.87421268 
-0 0 1 0 0 0 0 0 1:1.5811065 2:1.3568729 3:1.7012792 4:-0.87421268 
-0 0 1 0 0 0 0 0 1:1.561819 2:1.4013824 3:1.7826775 4:-0.96712708 
-0 0 1 0 0 0 1 0 1:1.6582572 2:1.445892 3:1.7012792 4:-0.85562986 
-0 0 1 0 0 0 1 0 1:1.5811065 2:1.4013824 3:1.592748 4:-0.91137844 
-0 0 1 0 0 0 0 0 1:1.5811065 2:1.4681468 3:1.8640758 4:-0.87421268 
-0 0 1 0 0 0 0 0 1:1.561819 2:1.4013824 3:1.7284119 4:-0.89279556 
-0 0 1 0 0 0 1 0 1:1.7161202 2:1.5126563 3:1.6470137 4:-0.70696688 
-0 0 1 0 0 0 0 0 1:1.619682 2:1.445892 3:1.7555447 4:-0.87421268 
-0 0 1 0 0 0 0 0 1:1.6003942 2:1.4236373 3:1.7555447 4:-0.85562986 
-0 0 1 0 0 0 1 0 1:1.5811065 2:1.3346182 3:1.5384825 4:-0.92996132 
-0 0 1 0 0 0 0 0 1:1.6389695 2:1.4681468 3:1.836943 4:-0.8184641 
-0 0 1 0 0 0 1 0 1:1.7161202 2:1.5126563 3:1.6741464 4:-0.72554976 
-0 0 1 0 0 0 1 0 1:1.6003942 2:1.445892 3:1.6741464 4:-0.78129834 
-0 0 1 0 0 0 0 0 1:1.6582572 2:1.4681468 3:1.8098103 4:-0.87421268 
-0 0 1 0 0 0 1 0 1:1.619682 2:1.4681468 3:1.7284119 4:-0.85562986 
-0 0 1 0 0 0 0 0 1:1.3303668 2:1.0898157 3:1.5113498 4:-1.1529558 
-0 0 1 0 0 0 1 0 1:1.8318462 2:1.6239301 3:1.9183413 4:-0.65121824 
-0 0 1 0 0 0 0 0 1:1.619682 2:1.4013824 3:1.7012792 4:-0.91137844 
-0 0 1 0 0 0 0 0 1:1.6389695 2:1.4904015 3:1.9183413 4:-0.89279556 
-0 0 1 0 0 0 0 0 1:1.619682 2:1.445892 3:1.7284119 4:-0.89279556 
-0 0 1 0 0 0 1 0 1:1.7354079 2:1.534911 3:1.6470137 4:-0.76271546 
-0 0 1 0 0 0 0 0 1:1.3689423 2:1.1565801 3:1.5113498 4:-1.0600414 
-0 0 1 0 0 0 0 0 1:1.5811065 2:1.4236373 3:1.7284119 4:-0.91137844 
-0 0 1 0 0 0 0 0 1:1.619682 2:1.445892 3:1.7555447 4:-0.89279556 
-0 0 1 0 0 0 0 0 1:1.561819 2:1.4013824 3:1.7555447 4:-0.91137844 
-0 0 1 0 0 0 0 0 1:1.619682 2:1.4013824 3:1.7284119 4:-0.87421268 
-0 0 1 0 0 0 0 0 1:1.6003942 2:1.4013824 3:1.7555447 4:-0.89279556 
-0 0 1 0 0 0 0 0 1:1.6003942 2:1.4236373 3:1.8640758 4:-0.91137844 
-0 0 1 0 0 0 1 0 1:1.5811065 2:1.5126563 3:1.7284119 4:-0.85562986 
-0 0 1 0 0 0 1 0 1:1.6968325 2:1.4681468 3:1.6470137 4:-0.79988122 
-0 0 1 0 0 0 0 0 1:1.6389695 2:1.4904015 3:1.8912085 4:-0.87421268 
-0 0 1 0 0 0 0 0 1:1.561819 2:1.4013824 3:1.7284119 4:-0.89279556 
-0 0 1 0 0 0 1 0 1:1.5811065 2:1.4013824 3:1.6741464 4:-0.87421268 
-0 0 1 0 0 0 0 0 1:1.619682 2:1.4681468 3:1.836943 4:-0.89279556 
-0 0 1 0 0 0 1 0 1:1.6389695 2:1.4681468 3:1.6470137 4:-0.8184641 
-0 0 1 0 0 0 0 0 1:1.6003942 2:1.4013824 3:1.7284119 4:-0.87421268 
-0 0 1 0 0 0 0 0 1:1.561819 2:1.4013824 3:1.7555447 4:-0.92996132 
-0 0 1 0 0 0 1 0 1:1.619682 2:1.445892 3:1.7012792 4:-0.87421268 
-0 0 1 0 0 0 1 0 1:1.6003942 2:1.445892 3:1.6741464 4:-0.85562986 
-0 0 1 0 0 0 0 0 1:1.5811065 2:1.4236373 3:1.836943 4:-0.89279556 
-0 0 1 0 0 0 0 0 1:1.561819 2:1.3791277 3:1.6741464 4:-0.92996132 
-0 0 1 0 0 0 1 0 1:1.619682 2:1.4013824 3:1.5656153 4:-0.89279556 
-0 0 1 0 0 0 0 0 1:1.7354079 2:1.6239301 3:1.9726069 4:-0.76271546 
-0 0 1 0 0 0 1 0 1:1.6389695 2:1.4681468 3:1.7284119 4:-0.8184641 
-0 0 1 0 0 0 1 0 1:1.619682 2:1.4236373 3:1.6470137 4:-0.85562986 
-0 0 1 0 0 0 0 0 1:1.5232435 2:1.3791277 3:1.7284119 4:-0.89279556 
-0 0 1 0 0 0 0 0 1:1.6003942 2:1.4013824 3:1.7284119 4:-0.87421268 
-0 0 1 0 0 0 1 0 1:1.6389695 2:1.4681468 3:1.7284119 4:-0.79988122 
-0 0 1 0 0 0 0 0 1:1.7354079 2:1.534911 3:1.8912085 4:-0.79988122 
-0 0 1 0 0 0 1 0 1:1.5811065 2:1.4236373 3:1.6741464 4:-0.89279556 
-0 0 1 0 0 0 0 0 1:1.2725039 2:1.067561 3:1.4028187 4:-1.1343729 
-0 0 1 0 0 0 0 0 1:1.619682 2:1.4681468 3:1.8098103 4:-0.85562986 
-0 0 1 0 0 0 0 0 1:1.5811065 2:1.3791277 3:1.7284119 4:-0.92996132 
-0 0 1 0 0 0 0 0 1:1.5425313 2:1.3791277 3:1.7012792 4:-0.92996132 
-0 0 1 0 0 0 0 0 1:1.677545 2:1.5794206 3:1.9183413 4:-0.78129834 
-0 0 1 0 0 0 1 0 1:1.677545 2:1.4681468 3:1.6198808 4:-0.8184641 
-0 0 1 0 0 0 0 0 1:1.3110793 2:1.1120706 3:1.4842169 4:-1.2087044 
-0 0 1 0 0 0 0 0 1:1.619682 2:1.4904015 3:1.7826775 4:-0.83704698 
-0 0 1 0 0 0 1 0 1:1.561819 2:1.4236373 3:1.7012792 4:-0.87421268 
-0 0 1 0 0 0 0 0 1:1.561819 2:1.4013824 3:1.8640758 4:-0.91137844 
-0 0 1 0 0 0 0 0 1:1.7161202 2:1.5126563 3:1.8640758 4:-0.79988122 
-0 0 1 0 0 0 1 0 1:1.6968325 2:1.4904015 3:1.6470137 4:-0.8184641 
-0 0 1 0 0 0 1 0 1:1.619682 2:1.4013824 3:1.6470137 4:-0.87421268 
-0 0 1 0 0 0 0 0 1:1.619682 2:1.445892 3:1.7826775 4:-0.85562986 
-0 0 1 0 0 0 1 0 1:1.619682 2:1.445892 3:1.7012792 4:-0.87421268 
-0 0 1 0 0 0 0 0 1:1.6003942 2:1.4681468 3:1.8640758 4:-0.87421268 
-0 0 1 0 0 0 0 0 1:1.6389695 2:1.4681468 3:1.7826775 4:-0.87421268 
-0 0 1 0 0 0 0 0 1:1.5425313 2:1.3346182 3:1.6741464 4:-0.96712708 
-0 0 1 0 0 0 0 0 1:1.561819 2:1.4013824 3:1.7555447 4:-0.96712708 
-0 0 1 0 0 0 0 0 1:1.6968325 2:1.5571659 3:1.836943 4:-0.8184641 
-0 0 1 0 0 0 0 0 1:1.5039558 2:1.3123634 3:1.6470137 4:-0.96712708 
-0 0 1 0 0 0 0 0 1:1.5232435 2:1.3568729 3:1.7555447 4:-0.96712708 
-0 0 1 0 0 0 0 0 1:1.6968325 2:1.5571659 3:1.8098103 4:-0.8184641 
-0 0 1 0 0 0 1 0 1:1.6582572 2:1.5126563 3:1.6741464 4:-0.8184641 
-0 0 1 0 0 0 0 0 1:1.5811065 2:1.4236373 3:1.836943 4:-0.91137844 
-0 0 1 0 0 0 0 0 1:1.561819 2:1.445892 3:1.7284119 4:-0.91137844 
-0 0 1 0 0 0 0 0 1:1.561819 2:1.3791277 3:1.6741464 4:-0.92996132 
-0 0 1 0 0 0 0 0 1:1.4460928 2:1.2678539 3:1.7012792 4:-1.0042928 
-0 0 1 0 0 0 0 0 1:1.7161202 2:1.5126563 3:1.8912085 4:-0.8184641 
-0 0 1 0 0 0 0 0 1:1.5811065 2:1.3791277 3:1.7012792 4:-0.91137844 
-0 0 1 0 0 0 0 0 1:1.5811065 2:1.4013824 3:1.7826775 4:-0.96712708 
-0 0 1 0 0 0 0 0 1:1.677545 2:1.534911 3:1.8098103 4:-0.83704698 
-0 0 1 0 0 0 1 0 1:1.6003942 2:1.4013824 3:1.7012792 4:-0.85562986 
-0 0 1 0 0 0 1 0 1:1.4653805 2:1.2678539 3:1.6198808 4:-0.8184641 
-0 0 1 0 0 0 0 0 1:1.6582572 2:1.4904015 3:1.7826775 4:-0.83704698 
-0 0 1 0 0 0 1 0 1:1.7161202 2:1.5126563 3:1.6470137 4:-0.78129834 
-0 0 1 0 0 0 0 0 1:1.5425313 2:1.3791277 3:1.7555447 4:-0.9485442 
-0 0 1 0 0 0 0 0 1:1.6582572 2:1.445892 3:1.7284119 4:-0.89279556 
-0 0 1 0 0 0 0 0 1:1.6003942 2:1.4013824 3:1.7555447 4:-0.87421268 
-0 0 1 0 0 0 0 0 1:1.5232435 2:1.3791277 3:1.7284119 4:-1.0042928 
-0 0 1 0 0 0 0 0 1:1.7161202 2:1.5571659 3:1.836943 4:-0.8184641 
-0 0 1 0 0 0 0 0 1:1.561819 2:1.4013824 3:1.7555447 4:-0.91137844 
-0 0 1 0 0 0 0 0 1:1.5232435 2:1.3568729 3:1.7284119 4:-1.0042928 
-0 0 1 0 0 0 0 0 1:1.5811065 2:1.445892 3:1.836943 4:-0.96712708 
-0 0 1 0 0 0 1 0 1:1.677545 2:1.5126563 3:1.7012792 4:-0.85562986 
-0 0 1 0 0 0 0 0 1:1.5039558 2:1.3346182 3:1.7555447 4:-1.0228757 
-0 0 1 0 0 0 0 0 1:1.5232435 2:1.3791277 3:1.7012792 4:-0.98570997 
-0 0 1 0 0 0 0 0 1:1.5232435 2:1.3568729 3:1.7012792 4:-0.98570997 
-0 0 1 0 0 0 0 0 1:1.5232435 2:1.3346182 3:1.7284119 4:-1.0228757 
-0 0 1 0 0 0 0 0 1:1.6968325 2:1.4904015 3:1.836943 4:-0.85562986 
-0 0 1 0 0 0 0 0 1:1.2532163 2:1.1788348 3:1.6470137 4:-1.0972072 
-0 0 1 0 0 0 0 0 1:1.5232435 2:1.3791277 3:1.7826775 4:-0.98570997 
-0 0 1 0 0 0 1 0 1:1.4653805 2:1.2678539 3:1.3214203 4:-1.11579 
-0 0 1 0 0 0 1 0 1:1.7161202 2:1.445892 3:1.6198808 4:-0.79988122 
-0 0 1 0 0 0 0 0 1:1.561819 2:1.4236373 3:1.7555447 4:-0.89279556 
-0 0 1 0 0 0 0 0 1:1.5039558 2:1.3346182 3:1.7555447 4:-0.98570997 
-0 0 1 0 0 0 0 0 1:1.5232435 2:1.3568729 3:1.7555447 4:-1.0042928 
-0 0 1 0 0 0 1 0 1:1.8511339 2:1.6684396 3:1.9454741 4:-0.61405253 
-0 0 1 0 0 0 0 0 1:1.5039558 2:1.3568729 3:1.7826775 4:-1.0228757 
-0 0 1 0 0 0 0 0 1:1.5425313 2:1.4013824 3:1.8098103 4:-1.0228757 
-0 0 1 0 0 0 1 0 1:1.6389695 2:1.445892 3:1.6198808 4:-0.87421268 
-0 0 1 0 0 0 1 0 1:1.8897092 2:1.7797134 3:2.1354034 4:-0.4839724 
-0 0 1 0 0 0 1 0 1:2.371901 2:2.3360825 3:2.8137228 4:0.20359382 
-0 0 1 0 0 0 0 0 1:1.4846683 2:1.3123634 3:1.7555447 4:-1.0042928 
-0 0 1 0 0 0 0 0 1:1.5232435 2:1.3791277 3:1.7555447 4:-1.0042928 
-0 0 1 0 0 0 0 0 1:1.561819 2:1.4236373 3:1.8098103 4:-0.91137844 
-0 0 1 0 0 0 0 0 1:1.5425313 2:1.3568729 3:1.7826775 4:-0.96712708 
-0 0 1 0 0 0 0 0 1:1.5425313 2:1.4013824 3:1.8640758 4:-0.92996132 
-0 0 1 0 0 0 0 0 1:1.561819 2:1.4013824 3:1.7826775 4:-0.96712708 
-0 0 1 0 0 0 0 0 1:1.5425313 2:1.4013824 3:1.8098103 4:-0.98570997 
-0 0 1 0 0 0 0 0 1:1.5811065 2:1.4681468 3:1.7826775 4:-0.96712708 
-0 0 1 0 0 0 0 0 1:1.619682 2:1.4904015 3:1.9183413 4:-0.91137844 
-0 0 1 0 0 0 0 0 1:1.5811065 2:1.4236373 3:1.8098103 4:-0.91137844 
-0 0 1 0 0 0 0 0 1:1.6003942 2:1.4236373 3:1.8912085 4:-0.92996132 
-0 0 1 0 0 0 0 0 1:1.561819 2:1.3568729 3:1.7826775 4:-0.9485442 
-0 0 1 0 0 0 0 0 1:1.561819 2:1.3568729 3:1.7826775 4:-0.96712708 
-0 0 1 0 0 0 0 0 1:1.5425313 2:1.3791277 3:1.8098103 4:-0.98570997 
-0 0 1 0 0 0 0 0 1:1.5811065 2:1.3346182 3:1.7284119 4:-0.96712708 
-1 0 0 0 0 0 0 0 1:0.92532587 2:0.95628721 3:1.4570842 4:-1.5989447 
-1 0 0 0 0 0 0 0 1:1.0024766 2:1.0453062 3:1.5656153 4:-1.5431961 
-1 1 0 0 0 0 0 0 1:0.86746287 2:0.97854197 3:1.5656153 4:-1.5989447 
-1 1 0 0 0 0 0 0 1:0.92532587 2:1.0007967 3:1.5656153 4:-1.5989447 
-1 1 1 0 0 0 0 0 1:0.88675052 2:0.91177768 3:1.3756859 4:-1.5060303 
-1 1 0 0 0 0 0 0 1:0.86746287 2:0.95628721 3:1.5384825 4:-1.6175276 
-1 0 0 0 0 0 0 0 1:0.84817517 2:0.86726815 3:1.4842169 4:-1.6732762 
-1 1 0 0 0 0 0 0 1:0.88675052 2:0.88952291 3:1.3756859 4:-1.5617789 
-1 0 0 0 0 0 0 0 1:1.0989149 2:1.1788348 3:1.7284119 4:-1.5060303 
-1 0 0 0 0 0 0 0 1:0.86746287 2:0.86726815 3:1.5113498 4:-1.6732762 
-1 1 0 0 0 0 0 0 1:0.88675052 2:0.95628721 3:1.5384825 4:-1.5989447 
-1 1 0 0 0 0 0 0 1:0.75173682 2:0.80050385 3:1.4570842 4:-1.7290248 
-1 1 0 0 0 0 0 0 1:0.82888752 2:0.88952291 3:1.4570842 4:-1.6732762 
-1 0 0 0 0 0 0 0 1:0.90603817 2:0.91177768 3:1.5656153 4:-1.6546932 
-1 1 0 0 0 0 0 0 1:0.84817517 2:0.91177768 3:1.5113498 4:-1.6732762 
-1 0 0 0 0 0 0 0 1:0.98318887 2:1.0453062 3:1.6198808 4:-1.6175276 
-1 0 0 0 0 0 0 0 1:0.96390116 2:1.0007967 3:1.5656153 4:-1.6361104 
-1 0 0 0 0 0 0 0 1:0.96390116 2:1.0453062 3:1.6470137 4:-1.5989447 
-1 0 0 0 0 0 0 0 1:0.96390116 2:0.97854197 3:1.6198808 4:-1.6175276 
-1 0 0 0 0 0 0 0 1:1.1567779 2:1.1788348 3:1.7012792 4:-1.4874475 
-1 1 0 0 0 0 0 0 1:-0.15478356 2:-0.40125334 3:0.42603889 4:-2.0449336 
-1 1 0 0 0 0 -0 0 1:-0.23193423 2:-0.44576287 3:0.34464055 4:-2.1006823 
-1 1 0 0 0 0 0 0 1:-0.40552324 2:-0.62380099 3:0.12757839 4:-2.1564307 
-1 1 1 0 0 0 0 0 1:-0.40552324 2:-0.62380099 3:0.019047299 4:-2.1564307 
-1 1 0 0 0 0 0 0 1:-0.38623559 2:-0.69056529 3:0.046180073 4:-2.1378479 
-1 1 0 0 0 0 0 0 1:-0.34766024 2:-0.66831052 3:0.12757839 4:-2.1378479 
-1 1 1 0 0 0 0 0 1:-0.40552324 2:-0.64605576 3:0.046180073 4:-2.1192651 
-1 1 1 0 0 0 0.7118662437130516 0 1:-0.40552324 2:-0.66831052 3:-0.0080854716 4:-2.1378479 
-1 1 1 0 0 0 0 0 1:-0.28979725 2:-0.51252717 3:0.10044561 4:-2.0820994 
-1 1 0 0 0 0 0 0 1:-0.40552324 2:-0.73507482 3:0.019047299 4:-2.1564307 
-1 1 1 0 0 0 0 0 1:-0.21264657 2:-0.46801764 3:0.10044561 4:-2.1006823 
-1 1 1 0 0 0 1 0 1:-0.36694792 2:-0.66831052 3:-0.035218243 4:-2.1378479 
-1 1 0 0 0 0 0 0 1:-0.2512219 2:-0.57929146 3:0.10044561 4:-2.1006823 
-1 1 1 0 0 0 0 0 1:-0.28979725 2:-0.60154623 3:0.046180073 4:-2.1192651 
-1 1 0 0 0 0 0 0 1:-0.32837257 2:-0.64605576 3:0.073312841 4:-2.1192651 
-1 1 1 0 0 0 0 0 1:-0.23193423 2:-0.51252717 3:0.10044561 4:-2.0820994 
-1 1 0 0 0 0 0 0 1:-0.42481092 2:-0.62380099 3:0.12757839 4:-2.1192651 
-1 1 0 0 0 0 0 0 1:-0.40552324 2:-0.73507482 3:0.019047299 4:-2.1378479 
-1 1 1 0 0 0 0 0 1:-0.01976989 2:-0.28997955 3:0.23610948 4:-2.0077679 
-1 1 1 0 0 0 1 0 1:-0.30908492 2:-0.60154623 3:0.019047299 4:-2.1006823 
-1 1 0 0 0 0 0 0 1:-0.32837257 2:-0.66831052 3:0.073312841 4:-2.1006823 
-1 1 0 0 0 0 0 0 1:-0.36694792 2:-0.69056529 3:0.046180073 4:-2.1192651 
-1 1 1 0 0 0 1 0 1:-0.21264657 2:-0.53478193 3:0.12757839 4:-2.0077679 
-1 1 0 0 0 0 0 0 1:-0.30908492 2:-0.57929146 3:0.23610948 4:-2.0263507 
-0 0 1 0 0 0 1 0 1:2.1211612 2:2.0467706 3:2.3795984 4:-0.037983507 
-0 0 1 0 0 0 1 0 1:2.1597366 2:2.1135349 3:2.5695279 4:-0.00081776432 
-0 0 1 0 0 0 1 0 1:2.1790242 2:2.1357896 3:2.5423951 4:-0.037983507 
-0 0 1 0 0 0 1 0 1:2.140449 2:2.0912802 3:2.5966606 4:-0.019400636 
-0 0 1 0 0 0 1 0 1:2.0632982 2:2.0467706 3:2.5152624 4:-0.20522934 
-0 0 1 0 0 0 1 0 1:2.1790242 2:2.1357896 3:2.5423951 4:0.09209659 
-0 0 1 0 0 0 1 0 1:2.2754626 2:2.2248087 3:2.7051916 4:0.31509104 
-0 0 1 0 0 0 1 0 1:2.0825861 2:2.0690253 3:2.5152624 4:-0.14948073 
-0 0 1 0 0 0 1 0 1:2.1018736 2:2.0690253 3:2.5966606 4:-0.11231499 
-0 0 1 0 0 0 1 0 1:2.2175996 2:2.1135349 3:2.5423951 4:-0.037983507 
-0 0 1 0 0 0 1 0 1:2.0632982 2:2.0690253 3:2.5152624 4:-0.14948073 
-0 0 1 0 0 0 1 0 1:2.140449 2:2.0690253 3:2.5695279 4:-0.056566376 
-0 1 0 0 0 0 0 0 1:-0.00048222113 2:0.53344673 3:1.6470137 4:-1.7290248 
-0 0 1 0 0 0 1 0 1:2.0632982 2:2.0245159 3:2.4609969 4:-0.20522934 
-0 0 1 0 0 0 1 0 1:2.198312 2:2.1357896 3:2.5695279 4:0.11067946 
-0 0 1 0 0 0 1 0 1:2.140449 2:2.1135349 3:2.5966606 4:-0.037983507 
-0 0 1 0 0 0 1 0 1:2.1018736 2:2.0912802 3:2.5423951 4:-0.14948073 
-0 0 1 0 0 0 1 0 1:2.1018736 2:2.1135349 3:2.5152624 4:-0.037983507 
-0 0 1 0 0 0 0 0 1:2.0632982 2:2.0245159 3:2.5423951 4:-0.22381222 
-0 0 1 0 0 0 1 0 1:2.0825861 2:2.0245159 3:2.3524656 4:-0.24239509 
-0 0 1 0 0 0 1 0 1:2.0440106 2:2.0245159 3:2.4609969 4:-0.20522934 
-0 0 1 0 0 0 1 0 1:2.0825861 2:2.0690253 3:2.5152624 4:-0.11231499 
-0 0 1 0 0 0 0 0 1:2.0825861 2:2.0245159 3:2.5423951 4:-0.22381222 
-0 0 1 0 0 0 1 0 1:2.2368872 2:2.1135349 3:2.3795984 4:0.073513724 
-0 0 1 0 0 0 0 0 1:2.0054352 2:1.9354968 3:2.4067311 4:-0.37247518 
-0 0 1 0 0 0 1 0 1:2.1018736 2:2.0690253 3:2.5423951 4:-0.11231499 
-0 0 1 0 0 0 0 0 1:2.0632982 2:2.0245159 3:2.5423951 4:-0.24239509 
-0 0 1 0 0 0 1 0 1:2.198312 2:2.1135349 3:2.4067311 4:0.16642807 
-0 0 1 0 0 0 1 0 1:2.0247231 2:2.0022612 3:2.4609969 4:-0.26097795 
-0 0 1 0 0 0 1 0 1:2.0825861 2:2.0467706 3:2.5423951 4:-0.13089786 
-0 0 1 0 0 0 0 0 1:2.0247231 2:2.0022612 3:2.5152624 4:-0.35389233 
-0 0 1 0 0 0 1 0 1:2.2175996 2:2.0690253 3:2.3253329 4:0.24075957 
-0 0 1 0 0 0 0 0 1:2.0054352 2:1.9354968 3:2.4067311 4:-0.39105806 
-0 0 1 0 0 0 1 0 1:2.1018736 2:2.0467706 3:2.5423951 4:-0.13089786 
-0 0 1 0 0 0 0 0 1:2.1018736 2:2.1135349 3:2.6237934 4:-0.18664648 
-0 0 1 0 0 0 1 0 1:2.1211612 2:2.0245159 3:2.3795984 4:0.054930851 
-0 0 1 0 0 0 1 0 1:2.0247231 2:2.0245159 3:2.3795984 4:-0.29814371 
-0 0 1 0 0 0 1 0 1:2.0825861 2:2.0022612 3:2.4609969 4:-0.13089786 
-0 0 1 0 0 0 0 0 1:2.0054352 2:1.9354968 3:2.4609969 4:-0.35389233 
-0 0 1 0 0 0 1 0 1:2.198312 2:2.0690253 3:2.3524656 4:-0.019400636 
-0 0 1 0 0 0 1 0 1:2.198312 2:2.0912802 3:2.4881296 4:0.22217669 
-0 0 1 0 0 0 0 0 1:2.0632982 2:2.0022612 3:2.4881296 4:-0.26097795 
-0 0 1 0 0 0 0 0 1:1.9861476 2:1.9577515 3:2.4609969 4:-0.37247518 
-0 0 1 0 0 0 1 0 1:1.9282846 2:1.8909873 3:2.2982001 4:-0.29814371 
-0 0 1 0 0 0 1 0 1:2.198312 2:2.0912802 3:2.4338641 4:0.18501095 
-0 0 1 0 0 0 1 0 1:2.2368872 2:2.1135349 3:2.4067311 4:0.12926233 
-0 0 1 0 0 0 0 0 1:2.0054352 2:1.9577515 3:2.4881296 4:-0.37247518 
-0 0 1 0 0 0 0 0 1:1.7546955 2:1.6684396 3:2.1896691 4:-0.79988122 
-0 0 1 0 0 0 1 0 1:2.2754626 2:2.1580443 3:2.2439346 4:0.11067946 
-0 0 1 0 0 0 1 0 1:2.0247231 2:1.913242 3:2.3524656 4:-0.26097795 
-0 0 1 0 0 0 1 0 1:2.2368872 2:2.1357896 3:2.4338641 4:0.12926233 
-0 0 1 0 0 0 0 0 1:2.0247231 2:1.9577515 3:2.4609969 4:-0.31672657 
-0 0 1 0 0 0 0 0 1:1.6968325 2:1.6906943 3:2.2168019 4:-0.79988122 
-0 0 1 0 0 0 0 0 1:2.0054352 2:1.8464777 3:2.2982001 4:-0.50255531 
-0 0 1 0 0 0 1 0 1:1.9668599 2:1.9354968 3:2.2982001 4:-0.27956083 
-0 0 1 0 0 0 1 0 1:2.2175996 2:2.1357896 3:2.4338641 4:0.25934243 
-0 0 1 0 0 0 1 0 1:2.0632982 2:2.0245159 3:2.4881296 4:-0.16806361 
-0 0 1 0 0 0 0 0 1:2.0054352 2:1.8687325 3:2.2982001 4:-0.50255531 
-0 0 1 0 0 0 0 0 1:1.8511339 2:1.7574587 3:2.1625364 4:-0.61405253 
-0 0 1 0 0 0 1 0 1:2.0440106 2:1.9354968 3:2.1896691 4:-0.29814371 
-0 0 1 0 0 0 1 0 1:2.1597366 2:2.0912802 3:2.4067311 4:0.073513724 
-0 0 1 0 0 0 1 0 1:2.198312 2:2.0690253 3:2.4338641 4:0.20359382 
-0 0 1 0 0 0 0 0 1:1.7739832 2:1.7574587 3:2.2439346 4:-0.76271546 
-0 0 1 0 0 0 0 0 1:1.6389695 2:1.5571659 3:1.9997396 4:-0.92996132 
-0 0 1 0 0 0 0 0 1:1.6003942 2:1.6684396 3:2.1082706 4:-0.8184641 
-0 0 1 0 0 0 0 0 1:1.8125585 2:1.7352039 3:2.1354034 4:-0.66980112 
-0 0 1 0 0 0 1 0 1:2.0632982 2:2.0467706 3:2.3524656 4:-0.20522934 
-0 0 1 0 0 0 1 0 1:2.1018736 2:2.0022612 3:2.4067311 4:-0.019400636 
-0 0 1 0 0 0 0 0 1:1.9861476 2:1.9354968 3:2.4067311 4:-0.37247518 
-0 0 1 0 0 0 0 0 1:1.6003942 2:1.5126563 3:1.9997396 4:-0.9485442 
-0 0 1 0 0 0 0 0 1:1.619682 2:1.534911 3:2.0540051 4:-0.91137844 
-0 0 1 0 0 0 0 0 1:1.6968325 2:1.6239301 3:2.0268724 4:-0.79988122 
-0 0 1 0 0 0 0 0 1:1.8897092 2:1.8687325 3:2.2168019 4:-0.53972101 
-0 0 1 0 0 0 1 0 1:2.256175 2:2.1580443 3:2.4067311 4:0.14784521 
-0 0 1 0 0 0 0 0 1:2.0247231 2:2.0022612 3:2.5152624 4:-0.26097795 
-0 0 1 0 0 0 0 0 1:1.7354079 2:1.5794206 3:2.0268724 4:-0.8184641 
-0 0 1 0 0 0 0 0 1:1.6003942 2:1.5571659 3:2.0268724 4:-0.92996132 
-0 0 1 0 0 0 0 0 1:1.619682 2:1.5571659 3:2.0540051 4:-0.89279556 
-0 0 1 0 0 0 1 0 1:1.9861476 2:1.9577515 3:2.2439346 4:-0.35389233 
-0 0 1 0 0 0 1 0 1:2.0247231 2:2.0022612 3:2.3524656 4:-0.16806361 
-0 0 1 0 0 0 0 0 1:2.1018736 2:2.0467706 3:2.5966606 4:-0.16806361 
-0 0 1 0 0 0 0 0 1:1.8704216 2:1.8464777 3:2.3253329 4:-0.63263535 
-0 0 1 0 0 0 0 0 1:1.677545 2:1.5794206 3:2.0540051 4:-0.89279556 
-0 0 1 0 0 0 0 0 1:1.7546955 2:1.6016754 3:2.0268724 4:-0.79988122 
-0 0 1 0 0 0 0 0 1:1.6582572 2:1.5571659 3:2.0540051 4:-0.92996132 
-0 0 1 0 0 0 0 0 1:1.8318462 2:1.8242229 3:2.2982001 4:-0.61405253 
-0 0 1 0 0 0 1 0 1:2.2947502 2:2.1802993 3:2.2982001 4:0.16642807 
-0 0 1 0 0 0 0 0 1:2.0632982 2:2.0467706 3:2.5695279 4:-0.24239509 
-0 0 1 0 0 0 0 0 1:2.0054352 2:1.9577515 3:2.3795984 4:-0.40964094 
-0 0 1 0 0 0 0 0 1:1.7161202 2:1.6239301 3:2.0811379 4:-0.79988122 
-0 0 1 0 0 0 0 0 1:1.6582572 2:1.6906943 3:2.1082706 4:-0.85562986 
-0 0 1 0 0 0 0 0 1:1.8125585 2:1.8242229 3:2.2710674 4:-0.65121824 
-0 0 1 0 0 0 1 0 1:2.256175 2:2.0912802 3:2.2168019 4:-0.00081776432 
-0 0 1 0 0 0 0 0 1:2.0440106 2:2.0245159 3:2.5423951 4:-0.24239509 
-0 0 1 0 0 0 0 0 1:2.0247231 2:1.9800063 3:2.4067311 4:-0.40964094 
-0 0 1 0 0 0 0 0 1:1.7739832 2:1.7797134 3:2.2982001 4:-0.72554976 
-0 0 1 0 0 0 0 0 1:1.6389695 2:1.5571659 3:1.9997396 4:-0.87421268 
-0 0 1 0 0 0 0 0 1:1.8318462 2:1.7129492 3:2.2168019 4:-0.76271546 
-0 0 1 0 0 0 0 0 1:1.9668599 2:1.8687325 3:2.2710674 4:-0.61405253 
-0 0 1 0 0 0 0 0 1:1.9282846 2:1.8464777 3:2.2168019 4:-0.53972101 
-0 0 1 0 0 0 1 0 1:2.0632982 2:2.0245159 3:2.4881296 4:-0.22381222 
-0 0 1 0 0 0 0 0 1:1.9668599 2:1.9354968 3:2.3253329 4:-0.42822379 
-0 0 1 0 0 0 0 0 1:2.0247231 2:1.8909873 3:2.3253329 4:-0.46538955 
-0 0 1 0 0 0 0 0 1:1.619682 2:1.5571659 3:2.0268724 4:-0.92996132 
-0 0 1 0 0 0 0 0 1:1.7932709 2:1.7352039 3:2.2439346 4:-0.72554976 
-0 0 1 0 0 0 0 0 1:2.0825861 2:2.0467706 3:2.5423951 4:-0.26097795 
-0 0 1 0 0 0 0 0 1:2.0247231 2:2.0022612 3:2.4881296 4:-0.29814371 
-0 0 1 0 0 0 1 0 1:2.1018736 2:1.9800063 3:2.3524656 4:-0.24239509 
-0 0 1 0 0 0 0 0 1:1.7932709 2:1.7352039 3:2.2439346 4:-0.72554976 
-0 0 1 0 0 0 0 0 1:1.7161202 2:1.6016754 3:2.0811379 4:-0.85562986 
-0 0 1 0 0 0 0 0 1:1.8318462 2:1.7797134 3:2.2168019 4:-0.70696688 
-0 0 1 0 0 0 0 0 1:1.6389695 2:1.6906943 3:2.1625364 4:-0.91137844 
-0 0 1 0 0 0 0 0 1:2.0440106 2:1.9800063 3:2.4609969 4:-0.31672657 
-0 0 1 0 0 0 1 0 1:2.0825861 2:1.9577515 3:2.2710674 4:-0.26097795 
-0 0 1 0 0 0 0 0 1:1.7932709 2:1.7129492 3:2.1354034 4:-0.72554976 
-0 0 1 0 0 0 0 0 1:1.7354079 2:1.6461848 3:2.0540051 4:-0.79988122 
-0 0 1 0 0 0 0 0 1:1.8125585 2:1.7574587 3:2.2168019 4:-0.76271546 
-0 0 1 0 0 0 0 0 1:1.7161202 2:1.6461848 3:2.1354034 4:-0.83704698 
-0 0 1 0 0 0 0 0 1:1.9282846 2:1.8242229 3:2.2710674 4:-0.53972101 
-0 0 1 0 0 0 0 0 1:2.0440106 2:1.9800063 3:2.4609969 4:-0.27956083 
-0 0 1 0 0 0 1 0 1:2.1790242 2:2.0690253 3:2.2982001 4:-0.11231499 
-0 0 1 0 0 0 0 0 1:1.9089969 2:1.8019682 3:2.1625364 4:-0.65121824 
-0 0 1 0 0 0 0 0 1:1.7546955 2:1.7129492 3:2.1082706 4:-0.76271546 
-0 0 1 0 0 0 0 0 1:1.8511339 2:1.7797134 3:2.2982001 4:-0.63263535 
-0 0 1 0 0 0 0 0 1:1.619682 2:1.6239301 3:2.1082706 4:-0.91137844 
-0 0 1 0 0 0 0 0 1:1.9668599 2:1.913242 3:2.4067311 4:-0.42822379 
-0 0 1 0 0 0 1 0 1:2.0632982 2:1.9800063 3:2.2982001 4:-0.18664648 
-0 0 1 0 0 0 1 0 1:2.0440106 2:1.8909873 3:2.1896691 4:-0.37247518 
-0 0 1 0 0 0 1 0 1:2.2368872 2:2.0690253 3:2.1896691 4:-0.093732119 
-0 0 1 0 0 0 0 0 1:2.0054352 2:1.9354968 3:2.4067311 4:-0.33530945 
-0 0 1 0 0 0 1 0 1:2.2368872 2:2.1802993 3:2.5423951 4:0.12926233 
-0 0 1 0 0 0 1 0 1:1.9861476 2:1.913242 3:2.3253329 4:-0.37247518 
-0 0 1 0 0 0 1 0 1:2.0825861 2:2.0467706 3:2.2439346 4:-0.22381222 
-0 0 1 0 0 0 0 0 1:1.9861476 2:1.9577515 3:2.4067311 4:-0.40964094 
-0 0 1 0 0 0 0 0 1:1.7739832 2:1.7352039 3:2.2710674 4:-0.72554976 
-0 0 1 0 0 0 0 0 1:1.6968325 2:1.6239301 3:2.1354034 4:-0.8184641 
-0 0 1 0 0 0 1 0 1:2.0825861 2:2.0245159 3:2.4338641 4:-0.075149246 
-0 0 1 0 0 0 1 0 1:2.140449 2:2.0467706 3:2.4338641 4:0.017765107 
-0 0 1 0 0 0 1 0 1:2.0054352 2:1.913242 3:2.3253329 4:-0.29814371 
-0 0 1 0 0 0 1 0 1:1.9475722 2:1.8464777 3:2.2710674 4:-0.40964094 
-0 0 1 0 0 0 0 0 1:1.8704216 2:1.8464777 3:2.2710674 4:-0.59546965 
-0 0 1 0 0 0 0 0 1:2.0054352 2:1.9577515 3:2.4609969 4:-0.35389233 
-0 0 1 0 0 0 1 0 1:2.198312 2:2.0912802 3:2.4338641 4:0.14784521 
-0 0 1 0 0 0 1 0 1:2.0054352 2:1.913242 3:2.3524656 4:-0.29814371 
-0 0 1 0 0 0 0 0 1:1.9861476 2:1.9354968 3:2.3795984 4:-0.42822379 
-0 0 1 0 0 0 0 0 1:1.8125585 2:1.7352039 3:2.2439346 4:-0.72554976 
-0 0 1 0 0 0 0 0 1:1.8704216 2:1.8242229 3:2.2710674 4:-0.55830389 
-0 0 1 0 0 0 1 0 1:2.2175996 2:2.1357896 3:2.4881296 4:-0.019400636 
-0 0 1 0 0 0 1 0 1:2.2175996 2:2.1580443 3:2.5152624 4:0.24075957 
-0 0 1 0 0 0 1 0 1:2.1018736 2:2.0022612 3:2.4067311 4:-0.019400636 
-0 0 1 0 0 0 0 0 1:2.1211612 2:2.0022612 3:2.4881296 4:-0.31672657 
-0 0 1 0 0 0 0 0 1:1.8125585 2:1.7797134 3:2.2439346 4:-0.76271546 
-0 0 1 0 0 0 0 0 1:2.0440106 2:1.9800063 3:2.4881296 4:-0.31672657 
-0 0 1 0 0 0 1 0 1:2.256175 2:2.1580443 3:2.4881296 4:0.16642807 
-0 0 1 0 0 0 1 0 1:2.2368872 2:2.1802993 3:2.4881296 4:0.27792531 
-0 0 1 0 0 0 0 0 1:1.9475722 2:1.913242 3:2.4067311 4:-0.46538955 
-0 0 1 0 0 0 0 0 1:2.0632982 2:1.9354968 3:2.4067311 4:-0.39105806 
-0 0 1 0 0 0 0 0 1:1.8704216 2:1.7797134 3:2.2710674 4:-0.57688677 
-0 0 1 0 0 0 0 0 1:2.0825861 2:2.0245159 3:2.5423951 4:-0.22381222 
-0 0 1 0 0 0 1 0 1:2.256175 2:2.1802993 3:2.4881296 4:0.24075957 
-0 0 1 0 0 0 1 0 1:2.256175 2:2.202554 3:2.5423951 4:0.35225677 
-0 0 1 0 0 0 0 0 1:1.9861476 2:1.9577515 3:2.4881296 4:-0.46538955 
-0 0 1 0 0 0 0 0 1:1.9475722 2:1.913242 3:2.4067311 4:-0.4839724 
-0 0 1 0 0 0 0 0 1:2.0825861 2:2.0467706 3:2.5695279 4:-0.22381222 
-0 0 1 0 0 0 1 0 1:2.1597366 2:2.0912802 3:2.4609969 4:-0.056566376 
-0 0 1 0 0 0 1 0 1:2.2368872 2:2.1580443 3:2.4881296 4:0.22217669 
-0 0 1 0 0 0 0 0 1:1.8125585 2:1.7574587 3:2.2710674 4:-0.688384 
-0 0 1 0 0 0 0 0 1:1.8897092 2:1.8909873 3:2.3524656 4:-0.55830389 
-0 0 1 0 0 0 0 0 1:2.0825861 2:2.0690253 3:2.5695279 4:-0.22381222 
-0 0 1 0 0 0 1 0 1:2.0825861 2:2.0467706 3:2.5152624 4:-0.18664648 
-0 0 1 0 0 0 0 0 1:1.9475722 2:1.8687325 3:2.3524656 4:-0.44680667 
-0 0 1 0 0 0 0 0 1:1.9861476 2:1.9354968 3:2.4609969 4:-0.42822379 
-0 0 1 0 0 0 0 0 1:2.0440106 2:2.0245159 3:2.5152624 4:-0.27956083 
-0 0 1 0 0 0 1 0 1:2.0632982 2:2.0245159 3:2.4881296 4:-0.24239509 
-0 0 1 0 0 0 1 0 1:2.0825861 2:2.0467706 3:2.5152624 4:-0.18664648 
-0 0 1 0 0 0 0 0 1:2.0247231 2:1.9577515 3:2.4609969 4:-0.27956083 
-0 0 1 0 0 0 0 0 1:2.0440106 2:2.0022612 3:2.5152624 4:-0.26097795 
-0 0 1 0 0 0 1 0 1:2.1018736 2:2.0467706 3:2.5423951 4:-0.14948073 
-0 0 1 0 0 0 0 0 1:2.0825861 2:2.0467706 3:2.5423951 4:-0.20522934 
-0 0 1 0 0 0 0 0 1:2.0632982 2:2.0245159 3:2.5152624 4:-0.22381222 
-0 0 1 0 0 0 0 0 1:2.0440106 2:2.0245159 3:2.5423951 4:-0.24239509 
-0 0 1 0 0 0 1 0 1:2.0825861 2:2.0467706 3:2.5152624 4:-0.20522934 
-0 0 1 0 0 0 1 0 1:2.1597366 2:2.0912802 3:2.5966606 4:-0.056566376 
-0 0 1 0 0 0 0 0 1:2.0632982 2:2.0022612 3:2.4881296 4:-0.27956083 
-0 0 1 0 0 0 0 0 1:2.1018736 2:2.0690253 3:2.5966606 4:-0.16806361 
-0 0 1 0 0 0 1 0 1:2.0632982 2:2.0245159 3:2.4881296 4:-0.22381222 
-0 0 1 0 0 0 0 0 1:1.8318462 2:1.7797134 3:2.2439346 4:-0.66980112 
-0 0 1 0 0 0 1 0 1:2.198312 2:2.1357896 3:2.5695279 4:0.073513724 
-0 0 1 0 0 0 0 0 1:2.0825861 2:2.0467706 3:2.5695279 4:-0.22381222 
-0 0 1 0 0 0 0 0 1:1.8318462 2:1.7797134 3:2.2168019 4:-0.63263535 
-0 0 1 0 0 0 1 0 1:2.198312 2:2.1580443 3:2.5966606 4:0.11067946 
-0 0 1 0 0 0 0 0 1:2.0825861 2:2.0912802 3:2.5966606 4:-0.20522934 
-0 0 1 0 0 0 1 0 1:2.140449 2:2.0690253 3:2.5423951 4:-0.00081776432 
-0 0 1 0 0 0 1 0 1:2.2175996 2:2.1580443 3:2.6237934 4:0.073513724 
-0 0 1 0 0 0 1 0 1:2.140449 2:2.0690253 3:2.5152624 4:0.036347978 
-0 0 1 0 0 0 1 0 1:2.140449 2:2.1357896 3:2.5966606 4:0.036347978 
-0 0 1 0 0 0 1 0 1:2.1211612 2:2.0690253 3:2.5152624 4:-0.019400636 
-0 0 1 0 0 0 1 0 1:2.1597366 2:2.0912802 3:2.4881296 4:0.017765107 
-0 0 1 0 0 0 1 0 1:2.1018736 2:2.0245159 3:2.4609969 4:-0.075149246 
-0 0 1 0 0 0 0 0 1:1.8897092 2:1.8242229 3:2.1896691 4:-0.52113813 
-0 0 1 0 0 0 0 0 1:1.4846683 2:1.3123634 3:1.6741464 4:-1.0414586 
-0 0 1 0 0 0 0 0 1:1.4846683 2:1.2901087 3:1.7012792 4:-1.0786242 
-0 0 1 0 0 0 0 0 1:1.3882298 2:1.1565801 3:1.5656153 4:-1.1715386 
-0 0 1 0 0 0 0 0 1:1.3689423 2:1.1565801 3:1.592748 4:-1.2087044 
-0 0 1 0 0 0 0 0 1:1.3496546 2:1.1565801 3:1.5113498 4:-1.2272873 
-0 0 1 0 0 0 0 0 1:1.1760656 2:1.0007967 3:1.4299514 4:-1.3945332 
-0 0 1 0 0 0 0 0 1:1.1182026 2:0.93403244 3:1.3214203 4:-1.2458701 
-0 0 1 0 0 0 0 0 1:1.5232435 2:1.3123634 3:1.7284119 4:-1.0042928 
-0 0 1 0 0 0 0 0 1:1.4075176 2:1.1788348 3:1.592748 4:-1.1715386 
-0 0 1 0 0 0 0 0 1:1.3689423 2:1.2010896 3:1.6470137 4:-1.2272873 
-0 0 1 0 0 0 0 0 1:1.6003942 2:1.4681468 3:1.7555447 4:-0.87421268 
-0 0 1 0 0 0 0 0 1:1.5232435 2:1.3568729 3:1.7012792 4:-1.0228757 
-0 0 1 0 0 0 0 0 1:1.5039558 2:1.2901087 3:1.7284119 4:-1.0600414 
-0 0 1 0 0 0 0 0 1:1.3496546 2:1.2010896 3:1.6470137 4:-1.2087044 
-0 0 1 0 0 0 0 0 1:1.2917916 2:1.1565801 3:1.5113498 4:-1.2644531 
-0 0 1 0 0 0 0 0 1:1.3303668 2:1.1343253 3:1.5656153 4:-1.2272873 
-0 0 1 0 0 0 0 0 1:1.561819 2:1.3568729 3:1.8098103 4:-0.9485442 
-0 0 1 0 0 0 0 0 1:1.4653805 2:1.3346182 3:1.7284119 4:-1.0600414 
-0 0 1 0 0 0 0 0 1:1.4460928 2:1.2678539 3:1.6470137 4:-1.0786242 
-0 0 1 0 0 0 0 0 1:1.4075176 2:1.2455992 3:1.6741464 4:-1.1715386 
-0 0 1 0 0 0 0 0 1:1.5232435 2:1.3791277 3:1.7284119 4:-1.0228757 
-0 0 1 0 0 0 0 0 1:1.5232435 2:1.3346182 3:1.7555447 4:-1.0228757 
-0 0 1 0 0 0 0 0 1:1.4653805 2:1.2678539 3:1.6741464 4:-1.1343729 
-0 0 1 0 0 0 0 0 1:1.4268053 2:1.2455992 3:1.6741464 4:-1.2087044 
-0 0 1 0 0 0 0 0 1:1.4268053 2:1.2233443 3:1.5656153 4:-1.11579 
-0 0 1 0 0 0 0 0 1:1.2146409 2:1.0453062 3:1.3756859 4:-1.3759502 
-0 0 1 0 0 0 0 0 1:1.6389695 2:1.4681468 3:1.8640758 4:-0.83704698 
-0 0 1 0 0 0 0 0 1:1.3303668 2:1.2901087 3:1.7826775 4:-0.98570997 
-0 0 1 0 0 0 0 0 1:1.4653805 2:1.2678539 3:1.6741464 4:-1.0972072 
-0 0 1 0 0 0 0 0 1:1.4075176 2:1.2233443 3:1.6741464 4:-1.1529558 
-0 0 1 0 0 0 0 0 1:1.2146409 2:1.067561 3:1.4842169 4:-1.3387845 
-0 0 1 0 0 0 0 0 1:1.4653805 2:1.2455992 3:1.7012792 4:-1.11579 
-0 0 1 0 0 0 0 0 1:1.561819 2:1.3568729 3:1.7284119 4:-0.96712708 
-0 0 1 0 0 0 0 0 1:1.619682 2:1.4904015 3:1.8640758 4:-0.87421268 
-0 0 1 0 0 0 0 0 1:2.0054352 2:2.1135349 3:2.4067311 4:-0.53972101 
-0 1 0 0 0 0 0 0 1:1.0217642 2:1.3791277 3:2.3524656 4:-1.3387845 
-0 1 1 0 0 0 0 0 1:1.1374902 2:1.2233443 3:1.6470137 4:-1.3202016 
-0 0 1 0 0 0 0 0 1:1.8897092 2:1.9577515 3:2.3795984 4:-0.52113813 
-0 0 1 0 0 0 0 0 1:1.7161202 2:1.5794206 3:1.9454741 4:-0.78129834 
-0 0 1 0 0 0 0 0 1:1.6582572 2:1.4681468 3:1.8640758 4:-0.8184641 
-0 0 1 0 0 0 0 0 1:1.4460928 2:1.2901087 3:1.6741464 4:-1.0786242 
-0 0 1 0 0 0 0 0 1:1.5232435 2:1.3346182 3:1.6741464 4:-1.0414586 
-0 0 1 0 0 0 0 0 1:1.3882298 2:1.1788348 3:1.5656153 4:-1.2272873 
-0 1 0 0 0 0 0 0 1:1.4653805 2:2.0245159 3:2.7594573 4:-0.92996132 
-0 0 1 0 0 0 0 0 1:1.1760656 2:1.0230515 3:1.4299514 4:-1.3573674 
-0 0 1 0 0 0 0 0 1:1.4653805 2:1.2901087 3:1.8098103 4:-1.0414586 
-0 0 1 0 0 0 0 0 1:1.2917916 2:1.1565801 3:1.6198808 4:-1.2458701 
-0 0 1 0 0 0 0 0 1:1.3689423 2:1.1565801 3:1.5113498 4:-1.2087044 
-0 0 1 0 0 0 0 0 1:1.2146409 2:1.0230515 3:1.4842169 4:-1.3202016 
-0 0 1 0 0 0 0 0 1:1.3496546 2:1.1565801 3:1.5656153 4:-1.2087044 
-0 0 1 0 0 0 0 0 1:1.5425313 2:1.3123634 3:1.7012792 4:-1.0228757 
-0 0 1 0 0 0 0 0 1:1.6003942 2:1.445892 3:1.7826775 4:-0.9485442 
-0 0 1 0 0 0 0 0 1:1.3496546 2:1.1565801 3:1.5384825 4:-1.3202016 
-0 0 1 0 0 0 0 0 1:1.2532163 2:1.067561 3:1.5384825 4:-1.3016187 
-0 0 1 0 0 0 0 0 1:1.1760656 2:0.80050385 3:1.1314909 4:-1.413116 
-0 0 1 0 0 0 0 0 1:1.5039558 2:1.3346182 3:1.7555447 4:-1.0600414 
-0 0 1 0 0 0 0 0 1:1.561819 2:1.3346182 3:1.6741464 4:-1.0228757 
-0 0 1 0 0 0 0 0 1:1.2725039 2:1.0007967 3:1.4570842 4:-1.2830359 
-0 0 1 0 0 0 0 0 1:1.2532163 2:1.067561 3:1.3756859 4:-1.3202016 
-0 0 1 0 0 0 0 0 1:1.5232435 2:1.3791277 3:1.7555447 4:-1.0042928 
-0 0 1 0 0 0 0 0 1:2.2754626 2:2.1802993 3:2.8951211 4:-0.00081776432 
-0 0 1 0 0 0 1 0 1:2.5069149 2:2.4696112 3:3.1121833 4:0.50091976 
-0 0 1 0 0 0 0 0 1:1.4460928 2:1.1788348 3:1.5656153 4:-1.1715386 
-0 0 1 0 0 0 0 0 1:1.2725039 2:1.1120706 3:1.5113498 4:-1.3016187 
-1 0 1 0 0 0 0 0 1:1.1567779 2:1.0007967 3:1.2671548 4:-1.3759502 
-0 0 1 0 0 0 0 0 1:1.5425313 2:1.3123634 3:1.8098103 4:-1.0042928 
-0 1 -0 0 0 0 0 0 1:1.9668599 2:2.3360825 3:3.1664488 4:-0.22381222 
-0 0 1 0 0 0 0 0 1:1.6003942 2:1.4236373 3:1.7826775 4:-1.1715386 
-0 1 0 0 0 0 0 0 1:-0.27050957 2:-0.26772478 3:1.1314909 4:-1.7476077 
-0 0 1 0 0 0 0 0 1:1.4460928 2:1.2901087 3:1.6470137 4:-1.0972072 
-0 0 1 0 0 0 0 0 1:1.5039558 2:1.2901087 3:1.6198808 4:-1.11579 
-0 0 1 0 0 0 0 0 1:1.1953532 2:1.067561 3:1.4570842 4:-1.3945332 
-0 1 0 0 0 0 0 0 1:1.0024766 2:1.3791277 3:2.1625364 4:-1.4874475 
-0 1 1 0 0 0 1 0 1:2.140449 2:2.3583372 3:2.8679883 4:0.054930851 
-0 0 1 0 0 0 0 0 1:1.3689423 2:1.2233443 3:1.5113498 4:-1.2272873 
-0 0 1 0 0 0 1 0 1:2.5647779 2:2.5141206 3:3.1393161 4:0.87257719 
-0 0 1 0 0 0 0 0 1:1.2917916 2:1.0453062 3:1.4299514 4:-1.3016187 
-0 0 1 0 0 0 0 0 1:1.2917916 2:1.1343253 3:1.5384825 4:-1.2458701 
-0 0 1 0 0 0 0 0 1:1.4268053 2:1.2233443 3:1.5656153 4:-1.11579 
-1 1 0 0 0 0 0 0 1:0.38527113 2:0.31089908 3:1.0500926 4:-1.8033563 
-0 0 1 0 0 0 0 0 1:1.2532163 2:0.71148479 3:1.0500926 4:-1.3202016 
-0 0 1 0 0 0 0 0 1:1.1182026 2:0.97854197 3:1.4299514 4:-1.3945332 
-0 0 1 0 0 0 0 0 1:1.3496546 2:1.1565801 3:1.5656153 4:-1.2272873 
-0 1 0 0 0 0 0 0 1:1.5811065 2:1.8242229 3:2.5966606 4:-0.8184641 
-0 0 1 0 0 0 0 0 1:1.3303668 2:1.2010896 3:1.7012792 4:-1.1715386 
-0 0 1 0 0 0 0 0 1:1.4268053 2:1.2455992 3:1.592748 4:-1.2087044 
-0 1 -0 0 0 0 0 0 1:0.4624218 2:0.82275862 3:2.2168019 4:-1.691859 
-0 1 0 0 0 0 0 0 1:1.4846683 2:1.8909873 3:2.4881296 4:-0.9485442 
-0 0 1 0 0 0 0 0 1:1.2917916 2:1.1120706 3:1.4570842 4:-1.3202016 
-0 0 1 0 0 0 1 0 1:2.5262024 2:2.5363753 3:3.1935816 4:0.5938341 
-0 1 0 0 0 0 0 0 1:-0.50196159 2:-0.53478193 3:1.1857564 4:-2.0449336 
-0 0 1 0 0 0 0 0 1:1.2339286 2:1.0230515 3:1.4842169 4:-1.3387845 
-0 0 1 0 0 0 0 0 1:1.3110793 2:1.1343253 3:1.5113498 4:-1.2830359 
-0 0 1 0 0 0 0 0 1:1.3496546 2:1.2010896 3:1.6198808 4:-1.2087044 
-0 0 1 0 0 0 0 0 1:1.5232435 2:1.3123634 3:1.592748 4:-1.0972072 
-0 0 1 0 0 0 0 0 1:1.2532163 2:1.067561 3:1.4842169 4:-1.2830359 
-0 0 1 0 0 0 0 0 1:1.1182026 2:1.0230515 3:1.4570842 4:-1.3759502 
-0 1 1 0 0 0 1 0 1:2.661216 2:2.669904 3:3.4377766 4:1.188486 
-0 0 1 0 0 0 0 0 1:1.3882298 2:1.445892 3:1.836943 4:-1.2272873 
-0 0 1 0 0 0 0 0 1:1.4846683 2:1.2233443 3:1.6470137 4:-1.1715386 
-0 0 1 0 0 0 0 0 1:1.5039558 2:1.3346182 3:1.6741464 4:-1.0786242 
-0 0 1 0 0 0 0 0 1:1.3496546 2:1.0898157 3:1.5656153 4:-1.2272873 
